{"numOfInputs":60,"numOfOutputs":50,"biases":[-0.6841734184074522,-0.01217207200011607,4.043712955956196,-0.005208090013426765,123.01696497048651,-5.718813582744773,-4.850607777828446,-2.7912296221660828,-0.15373713367864584,-579.060322490192,-0.03176458080646947,-0.019072810602680278,-4.415740222696164,-148.5686262099713,-0.09719762318181709,-531.1770662266141,-2.1778870229811235,-1.7113423444019438,-2.388595956057717,-0.1813473096251739,-90.28972943488299,-0.02573404173805994,-0.12804422241195843,-0.0033966183166922,-38.12647286970989,-0.04869380834746835,-0.15512294375847744,-2.3640149564592156,2.177174149797274,-0.026191787770512115,-774.8919252050121,-0.5890108503782457,-3.3200950635910626,-0.046077785696346639,-0.019499362291113779,-107.0423075118935,-522.5195884865009,-0.0240528541009197,-0.035643538905759778,-4.643222244944234,-224.76270025442225,-0.044457902978987526,-0.08183941637056777,-0.12666835967950905,-3.166773055755613,-5.891092372936937,-0.003923389730883605,-0.005599597136328156,-0.037029345549786787,-54.77053803318366],"flattendWeights":[0.38501259684562685,-1.4727548875260004,0.4191593825817108,0.1382132152185857,2.4994542361169609,0.8199379444122315,-0.6511664390563965,-0.8076834678649902,0.8001057716352426,-2.6051663420338495,-1.231722354636023,-1.3660595319291136,-0.560727596282959,2.771825636204701,0.641776250997128,-2.058910341433068,-0.43995392322540285,0.27844974398612978,-0.2997936010360718,1.458967776517519,1.2903507149852887,0.058406531408160027,-2.611674988123211,0.4558101474844546,-0.3535083532333374,0.1274939775466919,0.935929934586005,-0.5031225681304932,3.0933811296489495,-2.0459291211385586,-1.0721667027939137,0.4383942782878876,0.8908685660055251,-1.8919175474206769,-0.25882965922863529,2.0730082841617705,-0.13097310350053646,-1.5134486570857285,-3.2425048089603445,-0.1553572416305542,1.7640085403492963,-2.885885146247563,0.2790996730327606,-1.3193924837922667,-0.45421135425567629,0.2844831645488739,-0.7070677752144674,0.7929830551147461,-0.9501801038279942,0.225805401802063,-0.8895699977874756,0.18591654300689698,-751749506138.2289,0.7152183055877686,65974913141689739.0,0.09771955013275147,0.3663792312145233,-0.33886897563934328,0.4538099467754364,-577680.8685695317,0.5584776401519775,0.28212782740592959,-0.5907094478607178,-0.4625169038772583,-0.7223472595214844,-529909.4902968911,0.13927900791168214,0.0013681650161743165,-234240830947.14597,-0.8978495597839356,-46706338101448.21,-0.7493894100189209,-0.17640578746795655,0.5088977813720703,-0.5228915214538574,-0.7246894836425781,-0.746340274810791,-234201469748.44354,119293177055851490.0,-0.5330810546875,-773005.4560103754,-0.11856019496917725,0.025446295738220216,-0.9701499938964844,-0.18011963367462159,-67547969613114.769,-521289.8997178381,0.7808585166931152,-0.767535924911499,0.44880959391593935,-121383325585767200.0,-0.5433471202850342,-0.13561522960662843,0.1447240114212036,0.8503475189208984,-0.743255615234375,-0.3203212022781372,-0.7939174175262451,0.8477809429168701,-54633.723037619326,0.1098548173904419,-0.9635593891143799,129218.39207145079,0.8323054313659668,0.02290523052215576,-0.36039079364194767,-0.7955090999603272,0.2032390832901001,-1.0698176911939495,-6430634.225081765,0.21047527869733086,-0.49595749378204348,0.7058398723602295,0.09333664007557585,-0.8582390015999292,-5898866.266778161,0.5858855247497559,-0.8526396408277184,0.6434263297959002,0.1768230678537064,0.14613986666193863,0.8543040752410889,-1.1907573373578644,-0.33298933506011965,0.34114123428171158,-0.7786190509796143,-1.1871706498623292,-0.521592378616333,0.26609695034004746,0.9746682643890381,-8604960.150431285,-0.6398828029632568,0.08487117290496826,0.7689499004250473,0.1871365583572797,-0.030510589110358183,-5802901.535865239,0.9029908180236816,0.2263411283493042,0.2675240096930333,0.23744654932425933,0.4509874680862229,0.7990350723266602,0.8318836688995361,-0.16185295581817628,0.5189499855041504,-0.05968654155731201,-0.5730793476104736,-1.0468863516798162,-608177.2101739374,0.6013717651367188,0.10765421390533447,-0.8054698437191287,-0.9084734916687012,-0.9143276214599609,-144.4403726021309,0.1256479024887085,0.6690001487731934,-0.6043329118860366,-0.9883987903594971,-1.3201221816467419,0.10382401943206787,-0.9585072994232178,-3732.379971634849,-0.8810844897862291,0.9451122283935547,-0.6691489219665527,-42.50188604978829,-0.7676590328019023,-2.1278616481604786,-2216.2118233277656,0.7177183628082275,-1.76261541927533,-0.7261676788330078,-957.7281222746581,0.024686694145202638,-0.17085709168058123,-0.5457255840301514,-5555.72576719009,-0.4915577173233032,-1.9580229483064183,-0.27923405170440676,-84.00949859659969,-0.4240486410295572,-1.1875407471885758,-2613.292649181252,-0.8000614643096924,-0.2052210569381714,0.2725774943828583,-117.0588646210589,0.2780303069150958,0.26876487391306438,-0.7061479091644287,0.05962264537811279,0.5976002216339111,-0.32829034328460696,0.8362443447113037,-0.7988216876983643,-1.0779018489468438,-0.17194961346940494,2.241678803562167,0.041040778160095218,-0.994300365447998,0.5732998847961426,-13.723360736631915,-0.3625725507736206,7.660716911445568,1.4836907597147915,-36.02022800789726,0.4150814712047577,0.3403339087963104,-0.13618624210357667,10.230440831155186,-30.067418423526058,-25.595047592235195,0.9294323921203613,6.187614682165133,-0.7893850803375244,-0.5907189846038818,-41.187203460184139,-4.7165424088995409,-8.93410240768759,0.5908129215240479,-0.5714724063873291,-16.097759969317257,-16.672484922617526,-39.051058725293078,-0.15563905239105225,-10.152222656664673,-0.44332826137542727,-0.9592282772064209,0.9008669853210449,0.46639272570610049,-0.39198291301727297,0.4879128634929657,-11.659042993634884,-0.5972447395324707,-0.7940902709960938,-0.5217535495758057,-0.9575285911560059,-21.254707922081076,0.42429158091545107,0.3219577968120575,-0.39091527462005618,2.618838902658603,-0.4372578816765751,-0.9118595603111748,-1.7169084925566736,0.296296089887619,0.6125349998474121,-37.90311797339011,0.12269175052642822,-0.09747326374053955,0.5507352352142334,-0.9079508781433106,0.5563733577728272,-263.3280654052266,-151.85313104032069,0.8442327976226807,0.05998790264129639,-0.47301948070526125,0.7096176147460938,-239.64440754718457,0.6003758907318115,-0.6330082416534424,-0.24107086658477784,-118.1704981832501,-0.27674543857574465,-0.6033616065979004,-0.2529491186141968,0.5857796669006348,-0.503486156463623,-0.10421121120452881,-0.6925837993621826,0.4927980601787567,0.9173629283905029,-0.02357494831085205,0.03470432758331299,0.853079080581665,-0.041190266609191897,-0.07229244709014893,-32.30794861706094,0.209586501121521,-0.3621000051498413,0.10918080806732178,0.6492557525634766,-0.9744844436645508,-0.6358180046081543,0.26460906863212588,0.9902286529541016,-0.5536119937896729,-0.7618353366851807,-3.5678133192317116,-6.33670102962219,-171.65569064671093,-317.70814974989079,0.3223366439342499,-0.9045608043670654,-0.014627814292907715,0.8133251667022705,2.197544157816498,-7.36687020842261,-0.46731793880462649,-3.5279078785756479,-11.678660980171403,-0.9326624870300293,13.16491440026622,2.9757291718302096,-68.04118744587872,-15.522697758240826,-11.046309393559464,-13.383372066498979,22.37565355711185,-44.91625210812903,-40.60816244840934,-14.243459434352202,9.414508565550428,-0.5593037605285645,-0.3632160425186157,-77.05388255165653,2.4670935511383549,-16.428699585016159,-15.42240541913727,-1.497449373472348,-30.89830377223573,-33.132629985375768,-75.36601461041549,-0.09248864650726319,6.624940860103459,-18.13922591583484,-11.972361514337252,-0.7560043334960938,2.4868753109138059,-18.045421409390163,-4.107358544767046,-12.067798139832107,-3.128384616580371,-16.80444985199258,-25.05516503766962,0.7988712787628174,-26.79246558581465,-15.671747698094425,0.07989466190338135,-12.76612024636839,7.700277281928631,0.7436631627619753,-2.6831648349237637,-4.433104921749953,-5.387891840905734,0.6915948390960693,-42.90501497376569,0.2678229510784149,-1.6398554221698672,0.7857520580291748,0.1754065752029419,-14599.737559695373,-303.56612914956266,-174.57976357175952,-37.79010566245141,-0.557227611541748,-11.244672234101547,-0.6174225807189941,-276.2097468959539,-379042.65216366978,-23.455245086906385,0.6787567138671875,-136.54676192913443,-4366.023917376262,-17.440184080467949,-45.06832269961414,-225150.8876351193,0.7595973014831543,-76.46558730199812,0.28429099917411806,-97224.390256544,-0.9398922920227051,-29.570633971954658,-0.2088381052017212,-564420.6437351444,-0.13120853900909425,-38.302890423740709,-37.31399224077539,-8480.286987453188,-14.431819661505303,-11.226536413894563,-265439.409478022,0.655764102935791,-0.11415207386016846,-0.6852452754974365,-11851.484266851594,-2.6036002115428995,-15.745762123097169,-5.835975392681523,-6.716014454836541,-196.94615888714777,-365.2421433335686,-0.39849817752838137,-0.6528289318084717,-21.237670019668795,-4.938138761947628,-73.42967539469427,0.9224317073822022,-3.932774867281162,0.4550482928752899,0.4502067267894745,-31459.562317831027,-525.0103446543894,-300.39667933003349,-63.64349207318111,0.3363761603832245,-20.21722583067147,-0.05458176136016846,-479.2591461691374,-816796.1942896239,-42.19376055138008,-0.61458420753479,-235.67444708142566,-9409.92822389652,-29.54007113606862,-80.71923718149866,-485179.8622830535,-0.949592113494873,-134.40813410400944,-0.8001012802124023,-209510.11603575218,0.34235069155693056,-51.98183952282393,0.4576217830181122,-1216274.0718438926,0.4861728847026825,-64.32649746157165,-63.721584459837547,-18272.617028065164,-26.3684179722491,-19.513920861953844,-571993.4255669185,-0.12502777576446534,-0.7970681190490723,0.4118768870830536,-25539.963559702475,-2.810288333743897,-26.329201495642665,-8.235056925590066,-11.394193375228872,-341.69965798541838,-634.4482652530012,0.29547783732414248,-0.7427425384521484,-36.070543939226059,-9.945434274716515,3.451894169630115,-15.068992113350865,-0.6120288372039795,-5.882940462475543,-6.082646939682722,-0.8105323314666748,17.123958842440069,4.479978107238187,-85.70198143964542,-28.603884635493125,-18.38350877224274,-23.096169022664964,27.185472589494898,-50.47273986863177,-48.830772124676389,-26.420354600887138,12.554078835559049,-0.9719846248626709,0.45215174555778506,-98.22362188471326,9.335430077328799,-22.04433096346054,-25.770827298705084,-3.410991959456378,-41.024774448733598,-40.9041762237293,-96.8551331845522,-0.4969977140426636,24.746781049514916,-33.57077257660249,-22.792677151691604,-0.47812092304229739,4.361974148190166,-32.98220281547062,-6.737733961811701,-7.452220323052438,-5.7247297006764,-30.162732753721689,-44.84648746449113,0.002625584602355957,-26.805205883750923,-29.954501709409425,-0.6024694442749023,-23.060873502816926,8.722569115372857,-0.4767231757655301,-2.9885975416482668,-4.288076534107407,-10.866787205024102,-0.04208028316497803,-0.932279109954834,0.5034613609313965,4883013.88580158,-0.4895414113998413,-0.6352183818817139,-60.9236205447235,-0.5218138694763184,-0.1849607229232788,-0.2225466880914293,-243005567.50821326,-0.022291247015152079,-0.8332173824310303,-0.6376461982727051,-1565.380611997085,0.3561259130382939,-222910700.75407667,0.9467658996582031,-17.48861779707364,-1.1203512934724723,-1.0169612852508657,-929.9860443809059,-0.16981136798858643,-1.7446402269408479,0.1258472204208374,-401.7670590077626,-0.07959449291229248,-0.914145036209781,-0.7039000988006592,-2330.354605740693,-0.4414013624191284,-325170580.6239281,0.9853730201721191,-35.46925407550836,-0.6926114599276365,-0.6506752629275403,-1095.914921497619,-219284355.85321639,0.47957345843315127,-0.9962112903594971,-49.85718493125711,0.1112953498756156,-0.05826851193209188,-0.974433422088623,0.8685147762298584,-0.17469966411590577,0.08354842662811279,0.8108363151550293,0.4407653510570526,0.22900172275180506,-22982208.398360194,0.510462760925293,0.9530737400054932,13633.337050934104,-0.4566758871078491,-0.13274633884429933,-0.5308109146862926,0.7926654815673828,-0.5671768188476563,-0.49907441096898977,-678465.1111294341,0.4082594051171383,-0.7966773509979248,0.396562784910202,-0.1733939362698628,-0.8950088655813334,-622360.7313260083,-0.5075223445892334,0.7138575397044858,-0.24186757505097299,-1.3985323329877906,-0.3025400011683964,0.9899346828460693,-1.2121616508104579,0.2798721492290497,-0.3192885166447813,-0.6319365501403809,0.43191922865665346,0.3869952857494354,0.655683986263503,-0.08534562587738037,-907868.0704352767,-0.7043697834014893,0.8264358043670654,0.16243129068062218,0.4842654373319162,-0.04700455795793681,-612236.9941207699,0.6483218669891357,-0.6066491603851318,0.549075929591638,0.19074236983398627,0.835301932596324,0.10404837131500244,-0.9489398002624512,0.6642167568206787,0.6151046752929688,-0.01909959316253662,-0.21622884273529054,0.35189898908354547,-64166.32874026835,0.8363971727850178,-4.098681167680031,-691452.635080863,-2.3018203744587608,2434975077931447.0,-0.076973557472229,6.68364765844666,0.7788617967957399,-35.893308297247049,-6.3281964663914789,-3.6987537803160475,-5.644036452445929,11.55792887941146,-24.345849961933376,-23.554233326150557,-6.685181393889962,5.009830847689077,0.1239851713180542,-215453.5286272216,-42.07063574917065,-194528587.4482883,-9.694764656682617,-6.838439839368478,-1.6447150790247154,-17.162840289543206,-17.862232782591066,-38.97220298359669,-215416.12365823199,4402134555289912.0,-6.582853045252241,-5.834815497863812,-0.18848693370819093,1.0284903271341913,-7.922672216422876,-0.6263682088520388,-281332510.61982747,-2.245546217235492,-6.007359795311327,-9.31801943800136,0.022954106330871583,-4481379652193748.7,-7.546979420963561,0.6884891986846924,-4.868917525944518,3.971957109379695,0.05474575283284254,-0.33264031024269216,-2.4387597930005686,-1.4858704034290294,-0.28736841678619387,-3.728843492175205,-0.9899909496307373,2553570.0555358028,-0.042784810066223147,0.9555399417877197,-66.08687489471505,-31.665695589267913,-18.850035905553037,-1.1945010425389576,-127079678.93770059,-0.37635127349453725,0.6604442596435547,-30.434494939735857,-1716.4302780256126,-1.4395781868223705,-116571075.82888972,-14.545177951642599,-19.88357870573484,-0.1334827032951368,-2.8688211985024334,-1019.5776653299146,-0.7286450862884522,-4.02936321055179,-0.4472161531448364,-440.168328439151,0.9298195838928223,-1.907615197822973,0.7796752452850342,-2554.502379268373,0.2961752116680145,-170047845.9141987,-4.37654848607545,-39.190747266545468,0.1159472505806887,-0.12423891903026024,-1202.1539695825259,-114674679.08743537,-0.32937467098236086,0.493150919675827,-54.34301263743415,0.845006712997149,-1.5047585206141057,-1.1482082440348589,0.23159617677927625,-21.933826703761029,-38.74018868996731,-0.6874747276306152,0.38385626673698428,-1.0753239431855959,-12018538.105490912,8.378447538244572,-6.108881199473374,0.20257890224456788,-2.525725649176579,-69.6353464092139,-0.23019158840179444,41.61388041486823,8.40772136486961,-213.7801843850776,-12.506725790257765,-7.738589394703449,-10.676432491083398,66.18621416629908,-169.32468853203066,-146.57041279750929,-12.207870145720424,32.123761844906827,0.2612311542034149,0.319240540266037,-247.67356847459699,-23.161023076253586,-49.31308316198455,-11.351016291409238,-1.7368210474909512,-96.76506970786471,-99.35495558080354,-232.61546922130334,0.24943482875823975,-36.46271679879879,-14.347628657892697,-9.514462659132949,-0.693932056427002,0.9566165960469535,-14.734363589633757,-2.4612059284328615,-62.45519247816093,-3.6389268432317265,-13.232941317433426,-21.1287725050988,-0.39543282985687258,-114.02600828059131,-13.194390278920965,-0.6419870853424072,-10.361783305230146,21.37805987343322,0.25216095845402589,-6.8350486588628629,-10.989203573448089,-4.188068423843819,0.3671436011791229,-0.7873501777648926,-3.591372810943405,-0.7190015316009522,-0.8034419921335539,5.891209231640846,0.3140961825847626,-0.794487476348877,-0.7009458541870117,1.8608829319610792,-5.444004415511024,-4.227601646644553,-4.814221890871307,0.24354588985443116,5.312977588461544,3.2339453708671099,-5.659362997648215,0.720775842666626,0.5552902221679688,0.8308532238006592,0.5741854305747706,5.870842226562703,-1.2354590688553129,-5.023304028286239,-1.5936590788099415,-0.26809585094451907,-0.6212501525878906,0.07378145824632403,-0.009561419486999512,9.64539936615583,-7.266528927293636,-4.9826783122341109,-0.6808197498321533,1.731845738555645,-6.171889489657717,-0.7461116892138109,5.796038304650325,-1.4904312416983206,-6.0245696166984479,-9.786977368142463,0.690086841583252,4.672944825053633,-6.302491811788618,0.7901175022125244,-4.931380984733478,-0.4105623960494995,-0.5714178085327148,-0.2128332396907791,-0.5065317153930664,-2.304680432572896,-0.9301331043243408,-87.69589268406152,-3.6085722058680189,-4778552985236.623,-2.11359349194365,371376362815426070.0,0.0056563615798950199,-615.9155200028048,-352.84451147852988,1.3958288888922115,-3167208.8224604588,-4.178527628819499,-5.289259166089915,-562.6350951831065,6.007124718210315,3.3649956344632168,-2905303.5479114728,-277.1817852101751,-0.966679573059082,-1488969677366.245,2.31535652070646,-298744817762897.6,-0.11995249443123089,-6.988307278564797,-0.8737683567190646,-0.6631569862365723,-0.36888039112091067,-0.41603455924769008,-1488719474902.5156,671522088154723600.0,-8.392399602715706,-4238100.362920798,-73.52984737585747,-0.06509812805103647,-8.07023902788012,-2.010734575365041,-432052836779728.4,-2858032.9059858794,-6.894529005052821,-11.301490478147399,-0.5393469333648682,-683243933588495500.0,-8.21194597170037,-9.927512940953975,-18.88650677357081,-401.3163963841011,-744.2495711963826,-0.19671343634269587,-0.817927360534668,-2.284923695203725,-299537.6325178502,-0.6943011283874512,-9.235405233327797,-0.13308846950531007,-3.0425064546738609,15.625361616000462,0.9062292575836182,0.26839467883110049,-0.3263198137283325,3.243787794915323,-15.173710535817515,-10.82068767384281,-12.476050872430435,0.32051965594291689,13.778927671497858,9.18542242346329,-15.331976084293562,0.8581006526947022,-0.446496844291687,-0.6321532726287842,3.7850991805106144,13.848687495394689,-1.672146159547738,-14.055813619157256,-2.9739159172319269,0.10479915142059326,0.3946196734905243,0.39457384276035287,0.5294094085693359,26.31960576194376,-18.251637004909097,-11.77147477930013,-0.6814143657684326,2.267110890607478,-18.573917813141767,-3.159222972078017,13.594208343791993,-3.7663487647588278,-17.137663433376124,-24.863352747664146,0.05966842174530029,14.651083098843819,-15.962665465789078,-0.39602482318878176,-11.646048289656275,-0.35366737842559817,0.36984512209892275,-0.32796024340269377,-0.5285601615905762,-4.843298240428777,-0.4118696451187134,2.1128637748398688,-1.6939016311363545,-0.7014939785003662,-1.1635149553706564,-13.616397757812806,-0.14970052242279054,9.026455136911851,2.5030321711022749,-43.39079665981017,-3.196715727992653,-2.726221022327168,-2.1048150239963787,12.586604595705385,-32.505594896872938,-29.482153096063969,-4.2397840090238889,7.208814698080727,-0.5186002254486084,-0.4187999963760376,-49.25633342662332,-4.524115353804894,-10.369019998164172,-3.511331066934132,-1.2402877407336639,-18.95963915834122,-20.67486329693937,-45.88930967946014,-0.8659441471099854,-5.066921022475718,-4.235762812983814,-2.9592560354002339,0.46460554003715517,0.683153995986346,-4.145889672614048,-0.9536414946643869,-12.848410597737356,-0.5819956573687497,-3.616272679702001,-4.460433263880986,-0.08514797687530518,-23.301361713368715,-3.4025808794992256,-0.6955809593200684,-1.9346246378129877,4.293465082750663,-0.036245347161195127,-1.3781341735680968,-2.284853611767587,-1.6695618793630345,-0.4090045690536499,-23.625972011317267,0.026682734489440919,-27123076822.282945,-0.6737568378448486,2166048823019779.3,0.48207947611808779,-166.3928445284763,-97.6557700843272,-25.471003637523887,-14669764.890169695,0.7313182353973389,-0.04013526439666748,-149.84525906643905,-20.325946913181768,-18.31587491821223,-13456677.224897944,-73.51530454605178,0.9383077621459961,-8451486768.319847,-29.75112765047433,-3.4182913080345984,-6.13359482066301,-0.5138115882873535,-0.9516997337341309,-10.185699508606423,-10.85218396090372,-27.654475122486799,-8450066602.749866,3915948992744847.7,0.3364247977733612,-19629903.490927437,-20.849372044349768,0.31011125445365908,0.37566038966178896,-0.6596126556396484,-9.440704025616084,-13237761.299404238,0.6854689121246338,-0.07990372180938721,0.5483620166778565,-3986442224677461.0,0.24095642566680909,-2.8562317388361575,-4.339535282387992,-108.89104148359857,-208.41049923730206,-1.3235096534548055,-1.1424164147509984,0.13476574420928956,-1387390.0244622329,0.48754021525382998,0.7480912208557129,0.033429175347546347,0.0001283884048461914,0.1500312089920044,-1168.399805878201,0.22250139713287354,-0.9219541549682617,-3.8192323265884049,-0.8129720687866211,-2.2395845237295455,0.6542198657989502,0.24231255054473878,-30316.344917762002,-2.818742818268828,-0.6685812473297119,-0.8364455699920654,-348.5253761749805,-1.8609060187796578,-5.2072466748749008,-18007.89193879199,0.8119766712188721,-8.787841321872176,0.02696096897125244,-7775.129090069998,0.1399785280227661,-2.804037615614244,-0.5618999004364014,-45140.35560929092,0.29860493540763857,-3.8004577025438008,-0.9490606784820557,-679.02303579433,-2.5117634294019877,-1.3653660561972199,-21229.91280922755,-0.8163063526153565,-0.11736190319061279,-0.9603350162506104,-948.056512260296,-0.8161012216610456,-1.549469159333127,-0.26573383808135989,0.773052453994751,-0.7915618419647217,0.05688917636871338,-0.6420018672943115,0.7511484622955322,-3.2373425502193067,0.0676897576725372,7.764519726283143,-5.417498520422823,-2669711.02826887,-2.7684761939356616,81123142721308870.0,-0.2828258275985718,38.98322004642638,7.828060369403242,-205.82718741345284,-8.97909391564371,-7.085412271707762,-8.282477227343437,65.22830972421783,-164.14620159889894,-142.45698686249569,-8.5175818133976,29.6777518401373,-0.3646582365036011,-831866.5709117524,-238.46303132550629,-944456732.496715,-48.76181566116653,-9.643093246957891,-2.0978835297469247,-91.29404603846614,-95.97994152302049,-221.9146097004784,-831726.7767254668,146660632239531430.0,-11.199117885939569,-8.39214554595815,-0.5775952339172363,0.4436406443868147,-11.387554726838289,-2.476382537294898,-1365898903.1978312,-2.51467919690988,-9.542006014044228,-16.286306741626257,-0.24549829959869386,-149300752793814350.0,-9.903259964777499,0.7568507194519043,-8.349735741117284,19.876276327509087,-0.3580478054991335,-6.258487779678184,-10.351931370277173,-3.280267739177647,0.5080060958862305,-53.63691151723054,0.06502258777618408,-13.297348402545122,-0.8081943988800049,-0.9287867546081543,-82449.9768544761,-382.75535073451939,-220.62891328758077,-183.82414666601174,0.5749907493591309,-60.339338563123927,-0.6841189861297607,-350.5709343276226,-2140668.115947821,-120.79311483495718,-0.8408033847808838,-173.3864770718065,-24662.084053740702,-86.48152798129373,-226.837832209272,-1271557.7389933179,-0.7134506702423096,-380.71202144611427,0.2600836455821991,-549084.2359223918,0.5154380798339844,-148.84882242797728,-0.9696242809295654,-3187617.92526996,-0.0008014440536499023,-185.165251889512,-46.97333947854093,-47892.14288965042,-72.72979037069288,-52.111208420243027,-1499087.308075363,-0.3318532705307007,-0.31094133853912356,-0.8400914669036865,-66937.33690027354,-9.496065489423098,-75.55849534575487,-6.51612493448358,-8.878281856003147,-249.797656974273,-463.95922145360967,-0.3582714796066284,0.19183242321014405,-102.62991134689143,-28.800392735865257,-0.3517853021621704,-7.045184039538802,0.6290328502655029,-2.3039572160239016,112619.38941963874,0.5751056671142578,0.8080379962921143,0.30264779925346377,2.4271324017897,-10.441768938473864,-7.667956514535407,-8.755552663325809,0.07670342922210694,9.692721488221814,6.1409766491860859,-11.957191318793102,-0.38096392154693606,-0.9871759414672852,0.6068384647369385,3.6341161523996345,-2375740.2018538846,-1.4439688881074709,-10.475686435395687,-2.1447133739866279,0.3210124671459198,-0.2912508249282837,0.7568931050693398,0.20734632015228272,1153520.103851282,-12.943465598799083,-9.605692695781718,-0.7348451614379883,1.6579943461683236,-13.37933109258974,-2.8792334428931896,-3435864.247018767,-3.329351094397356,-11.744243602578134,-18.064603290549305,0.6046178340911865,1741163.1571523268,-11.884101204372416,-0.7741942405700684,-7.9437196726848129,-0.7277138233184815,0.1937953233718872,-0.06542521159230008,-0.6404359340667725,-3.774237561635663,0.10464894771575928,-739.0760811324101,-1.970787617981503,-2477945600174.624,-0.5925048170199928,197880370722415430.0,-0.3376094102859497,-5264.366167126832,-3050.4793650612014,-414.4698399033879,-47632741.74649489,-1.9130861226903185,-2.6818751708038537,-4751.5037089621765,-343.3998300242243,-295.090846009793,-43693846.34138895,-2345.2707105854292,0.048935770988464358,-772113911521.6888,-480.9274773166653,-63.27654675614812,-94.61385787382329,-2.189001284283334,-0.44451552648758527,-183.04571782602089,-190.25412411172574,-444.1772374354252,-771984167575.276,357743292846978800.0,-3.340137630014311,-63738318.197771299,-646.7239188062752,-0.5348082234261824,-1.7145392345584217,-0.9318206885733892,-138.92905704601513,-42983027.14240243,-2.902333595555623,-4.272300884997957,-0.486333966255188,-364183233960030360.0,-1.9220107311867987,-89.81138211504812,-121.92055756906528,-3444.3280003275895,-6462.968143443096,-11.830947987967326,-21.88767789846439,-1.0842007605037745,-4504858.709296266,-6.042146057525058,0.06821119785308838,-278160680513.1406,0.5876092910766602,22213129888129337.0,0.3668789565563202,-45.778797602684068,-29.019178859973278,-54.19670426037536,-20693995.16944112,0.19829285144805909,-0.7620806694030762,-33.1276384432306,-46.05240175135428,-38.621423221040647,-18982746.22808099,-16.028905659987048,-0.9546267986297607,-86673399592.63243,-63.996088282902828,-8.638734407811299,-12.881826594825349,0.6210169792175293,0.9949948787689209,-23.34129932785629,-25.79673334532371,-58.03898223027021,-86658835226.90439,40158597851852840.0,0.6968162059783936,-27691047.380187766,-7.560524729918627,-0.684537410736084,0.5594620704650879,-0.5911016464233398,-19.68352121324188,-18673932.853136966,0.1655946969985962,-0.25602495670318606,0.725419282913208,-40881515682933630.0,-0.2640882730484009,-1.673845895441979,-2.0686597024014277,-30.491910681088993,-67.36695748703674,-2.4857637497951865,-2.756205288251313,-0.7292416095733643,-1957130.6191448719,-32.48913213729736,-0.5183906555175781,-16.624246591712774,0.23748719692230225,-0.6949102878570557,-111969.20549250535,-230.57685570874976,-131.7004242652394,-247.00644844197155,-0.15834033489227296,-80.21817042146383,-0.09348714351654053,-209.63502266142334,-2907081.3193469427,-161.95459616484744,0.7254283428192139,-104.35266025045492,-33490.6158113636,-115.7034369466797,-305.2637071337739,-1726807.6082654652,0.41478464007377627,-510.6837728047829,-0.16012609004974366,-745671.1014283599,0.07586300373077393,-199.83769420955935,0.07051193714141846,-4328863.8458895119,-0.7713537216186523,-250.13853472930323,-28.362622264585374,-65037.41420027576,-96.60908639455319,-71.31366334585191,-2035797.1131042692,-0.9908349514007568,0.5267021656036377,0.8117165565490723,-90901.51351019474,-12.770823698851416,-100.14056148837108,-4.500161796439799,-5.5538496154651348,-149.44016247023675,-279.03562848217276,-0.9569735527038574,-0.8754932880401611,-138.69436698072446,-39.385729656758368,-0.4436608552932739,0.23975646495819093,-3476.992832091454,-0.1051558256149292,84898231.45249112,0.2700757682323456,0.5972888469696045,0.2694239318370819,0.1919490098953247,-0.7220094203948975,0.9251508712768555,0.5525944232940674,-0.6634273529052734,-0.1270543336868286,-0.304207444190979,0.3843967616558075,-0.08296597003936768,-0.6699471473693848,-1083.8432904379154,-0.4973655939102173,-1791148324.5077415,-0.10032379627227783,-0.1758049726486206,0.7448863983154297,0.3682670295238495,-0.04098546504974365,0.7521278858184815,-1083.660889759903,869658199.7857154,0.0342334508895874,0.30531713366508486,0.9805102348327637,0.6454031467437744,-0.4498509168624878,0.6120104789733887,-2590407159.228914,0.24025452136993409,0.031987786293029788,-0.2374781370162964,-0.29452741146087649,1312706762.114398,0.7769789695739746,-0.663590669631958,0.2797825038433075,-0.47389185428619387,0.7109878063201904,0.35070130228996279,-0.0824664831161499,0.2736909091472626,0.8721351623535156,-20.599527915424316,0.566403865814209,-526004435783.1514,-0.7718844413757324,42005205860609790.0,0.6630978584289551,-145.1990941274397,-83.5337816145732,-0.29507720470428469,-9312688.17538198,-0.8599145412445068,-0.03504788875579834,-132.9901887631752,0.07926714420318604,0.27542969584465029,-8542594.64008164,-65.51595396980929,0.6091752052307129,-163900018616.15042,-0.07063281536102295,0.6648588180541992,0.5788495540618897,0.7519626617431641,-0.01962101459503174,-0.30813705921173098,-0.7385680675506592,-0.933058500289917,-163872477297.52298,75940228969803170.0,-0.4100989103317261,-12461493.86236934,-16.976450281559325,-0.9712173938751221,-0.05772435665130615,-0.9612114429473877,-0.4813588857650757,-8403622.495927295,0.33768126368522646,0.5632941722869873,0.45383569598197939,-77307272356655300.0,-0.3704944849014282,-2.9416039871557837,-3.3920521317319309,-95.5931418995995,-175.3466889937391,-0.14595067501068116,-0.4056438207626343,-0.362662672996521,-880745.6247840896,0.09088685118008837,-14.948387995209635,-0.21171104907989503,-7.103453649138397,19.374760421889428,0.3524458110332489,4.6913854858253469,0.43705986654388487,-19.25050621763983,-27.89610780065136,-18.288523125936324,-24.7805022585478,6.818037672472362,4.009487909777623,-1.7182609127186817,-28.3348313237779,4.2028725493288,0.21154987812042237,0.598374605178833,-22.48124386727013,19.071278095654223,-8.217782167589867,-26.152042416859154,-3.8773795765320928,-11.286285435881068,-11.387565599901919,-25.919282450485956,0.553400993347168,42.550844431565078,-34.03365106394849,-22.335975290267926,0.25377437472343447,4.414578871382101,-33.272295299870979,-5.862101751284493,15.637695560662197,-6.142086634977154,-31.10041712100475,-45.24860178746871,-0.19124948978424073,12.021747300000783,-30.055815477675087,-0.7041206359863281,-22.626949369435388,2.421062650130797,-0.969035976701299,-1.601063832934558,-0.5298584549827344,-10.811922001204652,0.7609391212463379,-299.9794413364369,-0.7552464429006441,-760574699971.6019,-0.6285433549099821,60737299016509670.0,-0.33720099925994875,-2123.8954126994613,-1220.9842427151993,-35.624735954758879,-46318728.3689586,-0.49718883420005119,-1.2169160578044614,-1934.11588044576,-27.677385805482236,-23.661852136400414,-42488493.42383502,-953.4466703285664,-0.23905479907989503,-236990997042.31128,-41.98190683896052,-3.8418405937201074,-7.832824340979854,-1.9620232364512203,0.6455066781955006,-16.325744029366306,-16.80451820822839,-38.798781534748979,-236951173711.62973,109805541951799200.0,-1.7323913676596768,-61980011.25965557,-257.6314852040324,0.5819565258034042,-2.295406524376237,-0.44265034757805379,-11.25464530468292,-41797282.192449379,-2.488126009768609,-3.038305813450358,-0.4889427423477173,-111782214158365890.0,-1.4520038601769374,-35.66618725382981,-48.18024505183128,-1386.6188007472626,-2576.351557723333,-1.8029356139700952,-1.2162753420708564,-0.5843236887908713,-4380586.190765319,-113.89416071972498,0.6799616813659668,-711158985752.6842,0.4920177161693573,41122929598135627.0,-0.4693819284439087,-799.3247177614162,-459.90012467497447,0.41434571146965029,-1351047.910715431,-0.34135448932647707,-0.6914136409759522,-730.1103589966723,0.5670421123504639,-0.35017073154449465,-1239326.9291098642,-359.82000297940496,-0.7596218585968018,-221593062828.66968,0.7886168956756592,-41226645704612.38,0.3646850287914276,0.4636397063732147,0.5304713249206543,0.28668829798698428,-0.52437424659729,-0.024146676063537599,-221555826927.33554,74361666415960400.0,0.04803740978240967,-1807865.0270288175,-95.79524384287154,0.06660521030426026,-0.9399480819702148,-0.8522133827209473,-59623090237926.65,-1219164.9389196332,-0.10371959209442139,-0.8039596080780029,-0.09870278835296631,-75649701631468190.0,-0.14524686336517335,-14.200252843682052,-17.63288962562479,-521.0181986818862,-966.7066666456101,-0.695319652557373,0.743046760559082,-0.5901389122009277,-127774.8683747543,-0.48980677127838137,-8.217133875193856,0.3969573676586151,-4.757813651062203,17.07127344451251,-0.06263363361358643,-0.5745182037353516,-0.1124337911605835,2.392050747354418,-16.915560237117874,-11.583427747814135,-14.056136082737677,0.6129605770111084,15.577637791508219,9.286343459685844,-15.181467704201019,-0.023767590522766115,0.927257776260376,0.46626946330070498,4.601006953758193,14.601870854537014,-0.2607412694075433,-15.58794660448927,-1.8476238698556258,0.2930452525615692,-0.8517196178436279,0.4401366033047525,0.5127277374267578,27.935148103787165,-18.964809986907527,-12.826828693491056,-0.6535685062408447,1.9785112542382677,-18.708069037340825,-3.190890391163902,14.753386798347976,-3.1695597154801269,-17.699884203132329,-26.096441670631,-0.7486140727996826,15.54043956590163,-16.811296582278979,0.23639404773712159,-12.197952892980905,0.3639523684978485,-0.714897871017456,-1.2094914757303115,-0.17079579830169679,-5.944797884742588,-0.7940683364868164,2.778417782801068,-0.14324974237230238,-1215603.0677206249,0.5696200209751215,35924830664467117.0,-0.17849886417388917,18.629683894129646,3.982640081417401,-99.76876430837619,-1.627300166584918,-0.8994275286836784,-2.191589797586401,31.87304734873316,-82.03327100169986,-70.94736094437822,-1.3294093302177333,14.089472447368547,0.3845774829387665,-378774.4986700461,-115.09801345882437,-1549927006.974711,-22.10516236118603,-1.4425348674191557,0.4241571793093543,-44.72467501385625,-45.83570675491712,-106.16063548395018,-378711.65973677198,64947661521900170.0,-1.7812017188583787,-0.345464994031075,-0.9515149593353272,0.1940291299130832,-1.781022932430742,0.3432600794675803,-2241546377.0783579,0.6522379603577491,-2.512357929859313,-3.405342489644072,-0.954240083694458,-66116819528676010.0,-0.924072854192147,0.44847628474235537,-1.8466013782376698,9.894941334693439,-0.7658715987292353,-3.75809405819379,-4.531218649726751,-0.3723973624707459,-0.9887371063232422,-456.7397638426737,-0.9667437076568604,-1.6909392891999942,-0.3180469274520874,-1.0225249091840177,-11822.257088788017,-3231.9499578905984,-1855.34727146726,-31.267626103098423,-0.5532915592193604,-10.391337351367211,-0.4246484041213989,-2952.146788168747,-306929.993816941,-21.038191231576766,-0.7228999137878418,-1454.1938865509885,-3536.7693818371936,-15.172216418705764,-39.31478804533398,-182315.36712914328,-0.36791501765844816,-63.29804985859719,0.480011910200119,-78727.98581308316,-1.0499578472550973,-25.2956633578639,-0.20812714099884034,-457038.9373784714,-0.8187658786773682,-29.81906865766737,-390.24295377996369,-6867.108242819393,-12.342968397283523,-9.299018998280595,-214941.01277816413,-0.2037116289138794,-0.46568238735198977,-0.7316493988037109,-9597.097412049981,-2.103937002733248,-12.634170613459914,-53.75276906361783,-71.76390644584925,-2107.0205531224133,-3907.898654696196,-0.6758555629506704,0.3090478006091031,-17.066377137338625,-4.0249955481343229,-0.27538979053497317,-5.192552731448911,0.6298019886016846,-2.3747290123464954,9.187690485621499,-0.8562502861022949,-0.37380921840667727,-0.6775410175323486,1.660455335320026,-8.148114554936014,-4.887020000897685,-7.4753826616943359,0.30901119112968447,6.932754415587602,5.60639477481626,-7.621510927489311,-0.9631705284118652,0.11168897151947022,0.6626522541046143,1.1605516021451672,6.93891166147317,0.04980357570127788,-7.642504301398696,-0.5661959117066371,0.07610189914703369,-0.5359857082366943,0.745599985179865,0.7697629928588867,14.932648197784327,-8.936241162759977,-6.505914364765997,-0.058029770851135257,0.5767952902631508,-10.65178537208589,-2.751605739230949,6.583389315230794,-0.9815829693292825,-8.849011836774402,-12.617921803206724,-0.8259656429290772,8.221850232816696,-8.069670038791328,-0.22279179096221925,-6.660211770673751,-0.8609821796417236,-0.39514458179473879,-0.33245767445995785,-0.7971820831298828,-3.6943331638362917,-0.45484793186187746,-6.451130390414305,-0.8473889827728272,-24.41585120917194,-0.4235886335372925,-0.6562087535858154,-168726.04619864643,-48.07855537764671,-26.639148270875589,-366.85775538542267,-0.3558143377304077,-119.73408729871288,-0.1894012689590454,-43.89403339116142,-4380686.357413905,-241.26625424383745,-0.10441148281097412,-21.127062845175499,-50465.946635572254,-171.27901272145128,-452.24531654963575,-2602132.1390586944,-0.8513977527618408,-759.242473690801,-0.6432220935821533,-1123653.961034167,-0.8160655498504639,-297.35377389037918,-0.6436240673065186,-6523178.019262476,-0.37765824794769289,-369.0502998410555,-6.424778722570252,-98006.09682163707,-143.8920457795413,-105.21713236164838,-3067745.9326818624,-0.6111469268798828,-0.8705101013183594,-0.771761417388916,-136980.61653778796,-21.04063758322687,-148.7902470390791,-0.29583837770637796,-0.1699280248760134,-31.117852935325759,-58.0889053756226,-0.46969854831695559,-0.6533925533294678,-203.4650551685547,-57.388310790782487,-96.28522613546852,0.07878005504608154,400227.55680007379,-0.013310790061950684,-15.840340867864227,-0.4598907232284546,-679.7416505332253,-392.3007337667749,-41.196660731063989,-19917533.976231673,-0.7765696048736572,0.11256563663482666,-615.674716022803,-34.4243192200094,-29.08387681541088,-18270492.336652347,-304.39324436268836,0.5412867069244385,-0.9401957988739014,-47.92479814653613,-7.253589906053656,-8.440300383284104,-0.9776074886322022,0.7525436878204346,-19.166652659652969,-18.495595934422707,-44.1184793772858,-0.7767460346221924,-11.223664671906885,-0.8798153400421143,-26652048.8602136,-83.57964416393392,0.34130212664604189,0.649301290512085,-0.8681144714355469,-14.534740481403365,-17973266.317634547,0.30747029185295107,-0.7182900905609131,0.5544583797454834,-23.586616049197258,-0.7183811664581299,-11.236114651485444,-15.324313240217276,-445.581007181611,-831.4763544421005,-2.0987113529963357,-1.4123827886001293,0.4092106521129608,-1883698.0895363813,-16.157264389906705,-0.9257194995880127,-262400249335.68365,-0.09398233890533447,20954558944595209.0,0.45041152834892275,-121.12550216600075,-71.13330793519687,-34.50061933473044,-10739495.366827716,-0.6269118785858154,-0.12184607982635498,-104.64238256597756,-27.7229313110308,-24.179041290683366,-9851413.001232615,-52.95446155546755,0.13455498218536378,-81762477453.2825,-38.84595125297653,-6.135819423515178,-8.39904152640906,0.8234186172485352,-0.10127103328704834,-15.427772575687236,-15.682253680285808,-36.62507206677496,-81748738305.06055,37883256887118987.0,-0.7833914756774902,-14370732.249372162,-15.685752330084256,-0.3538433313369751,-0.6598770618438721,0.100350022315979,-12.116076661265492,-9691149.485148486,-0.013081908226013184,-0.31159770488739016,0.30701562762260439,-38565215007373787.0,-0.6092514991760254,-1.5593935938239636,-3.6051028720654916,-79.22889982113112,-153.47264947213035,-1.927020967687084,-1.5707056616931859,-0.273415207862854,-1015685.8298153664,0.3186297118663788,-8.43684350365443,-0.4688807725906372,-2.8894187937655184,16.6454013583975,-284.1780699466497,0.34633180499076846,-0.18331921100616456,2.453934441636114,-17.122657728152057,-11.991479543412389,-14.896898084409419,0.34355661273002627,-7339.1883670586585,8.640785445040763,-16.07078110057177,-0.47095930576324465,-84.33328841862485,-0.7133920192718506,3.4180343047669949,-4354.8623827812535,-1.5844097327488787,-15.72430911162006,-1.8139631692463616,-1885.6953848444662,-0.5930371284484863,0.12486906120404538,0.3846840560436249,-10921.1460958396,-19.61965023767832,-12.02163344462854,0.2976240813732147,-162.29744055852866,-18.664596952347205,-2.7325780200896276,-5135.80489468277,-3.9234610326504284,-17.22320220555418,-25.836492049552523,-230.57705742949998,16.102612091837569,-17.082263663679709,0.2240813970565796,-12.213979482739795,0.7851564884185791,0.054758429527282718,-1.1387334650686927,0.459285706281662,-6.0884470390314189,0.17048537731170655,2.9820219711193718,-3.8564034335152046,-0.11631166934967041,-2.842596691567069,-14.70810104583279,0.9815573692321777,11.82496691565335,3.4162082132288296,-60.5985408798222,-8.140377233100907,-6.386073565171951,-7.1772327767733599,18.4966132500828,-43.38684089146351,-38.7160444571608,-7.716720753231543,9.16717502987757,-0.29733192920684817,-0.14379703998565675,-69.71782911098326,-3.726069412788858,-14.19861203890559,-7.007144104933915,-0.7096111723480023,-27.329195751628985,-28.076480945792239,-65.56980351169743,0.09822046756744385,-2.6124414231938468,-8.58526369486325,-6.301540735434452,0.7022037506103516,1.809214670138331,-10.022730268343264,-1.5658294495593397,-13.612909301616164,-2.1281884696671198,-7.958045902345302,-12.402130770497376,0.976679801940918,-28.96189594837638,-9.196271198030633,0.46120092272758486,-6.85698726819809,5.84861718299518,-0.25342693990421058,-2.9959141277894294,-4.238359404903168,-3.8759485258041854,-0.32281625270843508,-246.376267531819,-0.4759465456008911,830833.9331220837,0.3531202971935272,-15.082740204356372,-0.6271719932556152,-1750.0191811986417,-1007.3196079942846,-39.41025424822536,-41346899.330561038,0.12080180644989014,0.0605083703994751,-1592.6994451813907,-32.94647813046434,-28.34694442217181,-37927798.94568326,-785.4106204767318,-0.6476199626922607,0.5340292453765869,-46.36405983068429,-6.716241296846241,-8.945192652256685,0.6332314014434815,-0.37876641750335696,-17.356731321595036,-17.374688391719645,-41.966933858059608,0.07070052623748779,-9.83027810969111,0.5331487655639648,-55327108.59576444,-211.73556236004144,0.27605578303337099,0.7115676403045654,-0.23143351078033448,-14.178451931488821,-37310784.01329681,-0.44491636753082278,-0.6472153663635254,0.14221608638763429,-22.34170665270576,-0.41867172718048098,-30.387111487305974,-39.30774273094705,-1143.0275823374664,-2125.3354623298933,-2.173674416421485,-1.819211886516578,-0.4754871129989624,-3910374.780583079,-0.4696711301803589,-0.7721880167980327,0.2438451051712036,0.6294625610253807,193785.86339341719,0.14063036441802979,-0.6942548751831055,-0.26663053035736086,-0.627040060900472,-1.0152363198324053,0.2457068847626257,-0.8060424893715575,-0.07309925556182862,0.0024093911389985406,1.373619991552342,-0.3083806270576686,-0.5164685249328613,0.9806368350982666,-0.3236585855484009,0.6902285562457307,-4088402.1022832707,0.4397802240456626,-0.466677498661757,0.30639889701177477,-0.21522891521453858,-0.912590503692627,-0.794166298126927,-0.7091696262359619,1985047.5398157489,-2.219455798407291,-0.9873938478218445,-0.7266318798065186,0.6906301764192122,-0.9092188648573142,-0.6999982830791968,-5912757.368655862,-0.26459846105096987,-2.05430617455048,-2.037647434327885,-0.149574875831604,2996332.0033089939,-0.4062528582126464,0.5225214958190918,-0.4636928472388763,-0.402042031288147,0.7015738487243652,0.35925011666249037,-0.9454700946807861,-0.0064751028451851678,-0.9262137413024902,-0.042646254517881589,-0.4412869230715001,0.4824773967266083,0.5249918361483762,2.188345981911512,0.2886621654033661,0.8928882705560436,-0.6633640497479376,-0.35609516890712286,-1.155116950817677,-0.39411852707466085,-1.615606552658687,1.0638966923595468,0.5829402096696965,1.473848468605651,-0.712319126185157,-0.47201052976096566,0.6676788330078125,-0.5643556118011475,0.7854285063151449,0.47146049429438766,-0.13798522660659785,-0.877456382956139,0.6530945436822429,0.4006927294210085,-0.12238956352704307,0.32758962058896576,-0.23496687412261964,3.1960528144740669,-2.8992538528676685,-0.3959404435351328,0.8507332801818848,0.35159564083905428,-2.475683159010377,-0.23994488720820837,0.34966465388414949,-1.028249740378304,-1.9465054296037264,-3.5482138707580206,0.6687896251678467,1.996036169230687,-1.3004213602457487,0.7907373905181885,-1.268168286465864,0.5571953264251753,0.8027557688925827,0.5064244531585532,0.9316467656428584,-0.3406328056715131,-0.7171499729156494,-20.65392470620314,-0.5540759563446045,0.9837675094604492,0.034918904304504397,0.9706990718841553,-0.2905079126358032,-150.27917967491647,-87.28346376599129,0.3165850341320038,-0.24920141696929933,-0.8906903266906738,-0.09297335147857666,-137.58683848181983,-0.6137948036193848,0.0010606050491333008,0.8950626850128174,-67.73367996517168,-0.4972289800643921,-0.963158130645752,-0.002638697624206543,0.6371862888336182,0.9553568363189697,-0.7279684543609619,0.5136239528656006,0.34068939089775088,-0.34788453578948977,-0.20285260677337647,-0.11322510242462158,0.7953896522521973,-0.7075142860412598,0.7618222236633301,-18.651464504149048,0.3299541175365448,-0.5889444351196289,0.943474292755127,-0.4040340185165405,-0.18485915660858155,0.8766157627105713,-0.37157928943634035,-0.9144797325134277,0.6232919692993164,0.6294360160827637,-2.120362006869741,-3.2267809203248718,-97.99295193381497,-182.46874433424103,0.3972131907939911,-0.6225652694702148,-0.7388851642608643,-0.49986302852630618,-0.40870678424835207,-3.473064512013343,0.08922779560089112,-2.36223382555883,8.692686650924104,-235.463397128314,-0.9336819648742676,0.15037286281585694,1.8306543697792022,-8.473640979404506,-6.041817701135274,-7.095006358372316,0.711827278137207,-6117.8925873393655,4.28133636636908,-7.291632700157963,0.1146005392074585,-70.18462275856503,-0.2865341901779175,1.9318826830732748,-3631.4843993170634,0.34589628596761,-6.285463403595648,-2.005254384841602,-1572.1352127160526,0.6711852550506592,-0.19137593451520269,-0.5405125617980957,-9108.01595089521,-8.124547359717209,-5.822604062563739,-0.037627577781677249,-135.24761018505138,-8.849262425281035,-1.696501901344053,-4282.876439134284,-2.0587447852928104,-7.630255039551929,-11.296189586146463,-192.33847938436058,7.9608971612179719,-7.434683641859956,0.8568837642669678,-5.215203919100567,0.4353644549846649,-0.2160106897354126,-0.43495777323855097,0.6197903156280518,-2.6953465112549095,0.2852306067943573,0.8009579181671143,-1.293425496960535,0.455733921594752,-0.8576516791254339,4.070110354532227,-3245.2151130911384,0.7747299671173096,0.40795204043388369,-1.7345702360100304,-2.506953385847976,-2.146409474607677,-2.825701260789664,0.04335892200469971,-84273.63936348172,1.36666048944555,-3.424887889090411,0.3884083926677704,-971.0122593773518,-1.7627435576803377,-1.3464943619401542,-50059.52182619568,-0.507157188343349,-7.0646544340407459,-0.18623879045116549,-21618.5957726295,0.8562734127044678,-1.658062535479266,-0.2087799310684204,-125492.55308762183,-3.074375527681374,-4.169560659549,0.49071356654167178,-1885.4216859721503,-4.61508105871458,-1.3151415542228713,-59014.546300561364,0.009072214666040102,-3.9860316794617325,-5.754879009588544,-2635.69957020074,2.8748230384903206,-4.8819835422230108,0.40079185366630556,-2.5854410329040915,-0.8349907398223877,0.3943471610546112,0.05361558850837611,0.6786198616027832,-1.6879011272890364,0.4618935913665266,0.46660515666007998,-0.3323255777359009,0.4848613440990448,0.7424018383026123,0.8498246669769287,0.853351354598999,0.7854776382446289,-0.3871661424636841,0.2785293757915497,0.30182740092277529,-0.3201700448989868,-0.81846022605896,-0.733893871307373,-0.5218794345855713,0.7662389278411865,0.27531811594963076,0.7818939685821533,0.5725231170654297,0.021298527717590333,0.03765237331390381,-0.43516361713409426,-0.036565423011779788,-0.5399763584136963,0.0862356424331665,-0.02463710308074951,0.30977103114128115,-0.2751539945602417,0.8553762435913086,0.22804796695709229,0.648113489151001,-0.9674866199493408,0.2681367099285126,-0.6097888946533203,0.6450924873352051,0.5925462245941162,-0.9742798805236816,-0.7295372486114502,0.17409956455230714,-0.055214762687683108,0.29631349444389346,0.5284113883972168,0.4186193645000458,0.01574838161468506,0.48140808939933779,-0.43565618991851809,-0.750051736831665,0.2550601661205292,0.6640894412994385,0.0851370096206665,0.781724214553833,0.5575494967928539,-3.3903257883822368,-838414.7288522513,-0.691807232226324,32599643.858262637,0.8908975124359131,3.84166984741202,0.7751932532915788,-23.361710273265066,-5.792834587786807,-4.712672828906569,-4.824052273880121,7.611620200397702,-14.825121475505826,-13.606489290433473,-6.360073943629794,4.508157687751749,-0.04074680805206299,-261244.94493004203,-26.96352784676116,-687774090.5179532,-6.0561841043088,-5.9759400649239648,-1.8258640789035495,-11.43010047138669,-12.436663295456932,-27.31788014905996,-261200.98643015405,333935708.17009899,-6.584448795443556,-5.528655424282771,0.0022960901260375978,0.854431778282029,-6.7104517618300429,-1.244541714680977,-994677498.3215264,-2.2322809824778298,-7.378732951369879,-9.481011116464522,-0.8653559684753418,504059697.7275892,-7.272493647193909,0.4165506064891815,-4.193525692850341,1.7451191317784814,0.8529234740139448,-1.1938481652956748,-1.6723733522699825,-2.008393826263773,-0.025626778602600099,2.911120288486032,-3.9066645572708289,-0.6410467624664307,-2.33897916128631,-21.123575957011665,-0.973813533782959,12.937702312984009,2.933623396414262,-71.54059894824285,-7.23129553868306,-3.7492098517504899,-6.067243513341319,23.058257554489378,-54.34903626981223,-48.55076545668255,-6.782652105348096,11.679258151107149,-0.15441763401031495,-0.3820103406906128,-82.80711058837319,-5.318149624376598,-16.217908526729727,-6.020929874960637,-1.9685484189372356,-31.829954590590935,-32.72436178918206,-77.94181829143727,0.6854081153869629,-8.09410811113196,-7.977181025600352,-5.682476864467102,0.5894901752471924,-0.09878089023521838,-7.2141990489696019,-1.287340101928484,-19.508549659203085,-1.0631629031123698,-7.220622150116863,-11.126100788589064,-0.5791304111480713,-37.40056175242126,-8.125061785148939,-0.5417389869689941,-5.555253696952616,7.238732817670326,0.04883241872437385,-3.236460201188445,-4.165377722886825,-2.9659539190343024,0.3580016791820526,-0.5130963325500488,-12.108901722992089,0.8453598022460938,-4.397877247117593,21.457053105177996,-0.7412750720977783,0.5021779537200928,0.4768840968608856,4.670946880698613,-21.92805218773794,-14.79996099716597,-18.28580979728697,-0.29335272312164309,18.383569890693459,10.95594275561854,-19.836400840535327,0.82232666015625,0.9035837650299072,-0.8117766380310059,5.894545389071425,16.304694052827619,-2.548890507414686,-19.663083736804258,-4.168592766243144,-0.7925312519073486,0.6354296207427979,0.783169475822827,-0.6088597774505615,36.60035024934964,-24.995404300379005,-16.376106211970698,-0.21231615543365479,2.4601795543934448,-23.439453838197747,-3.8251720344987776,18.348255253907074,-4.351856192069442,-21.83040539944499,-32.78921911678543,-0.5284667015075684,18.986667073178436,-21.099297312909277,0.1657043695449829,-17.33325699022072,-0.8121898174285889,0.9057059288024902,-0.1980733885611575,-0.9002876281738281,-7.317417677098332,0.017378926277160646,-160.0587326853528,-0.33537471294403078,-151881896396.1812,-0.6720459461212158,12128879762184766.0,0.20190942287445069,-1129.257641716607,-647.9395667795121,-12.584140027834986,-20195656.76907593,0.9926187992095947,-0.8047428131103516,-1029.2006765848446,-10.317727650663678,-8.833767540211785,-18525615.22229497,-506.8743320481233,0.6335535049438477,-47325652809.5233,-13.879061347793164,-1.275973753579104,-2.5648206812564124,-0.13328444957733155,-0.4647470712661743,-5.191861663251366,-4.751364076924604,-13.672823081255095,-47317700334.74983,21927517968701437.0,0.2046879529953003,-27024208.10201534,-137.6977079367979,0.02276790142059326,0.443491667509079,-0.958550214767456,-3.735717952593074,-18224238.732671996,0.9121432304382324,-0.7662789821624756,0.05097305774688721,-22322247729670660.0,0.646033525466919,-18.664051764980785,-24.573097670413444,-736.4501675740219,-1368.3645321243387,0.27571995255915618,-0.48189793161984686,-0.8336524963378906,-1910001.1404925378,0.018359065055847169,-1.4443534727197467,0.010086139021835757,-1.4757980271292402,3.46075145961426,-5538.894127187567,0.17638814449310304,-0.34075844287872317,1.0207541459866923,-3.645967530491056,-3.3778375980048604,-3.932620138253864,-0.9211111068725586,-143801.87959593137,2.721542266326976,-3.033196332673772,0.37799403071403506,-1655.5330533420693,0.641441012696754,0.2761977412357882,-85420.11191330613,0.17320353788337915,-3.105513762377856,-1.5399195167900817,-36889.01981428209,-0.7620739936828613,0.25070514671362056,-0.29319703578948977,-214138.051341083,-4.874147764616029,-4.111793370751295,0.583308219909668,-3216.5529657299926,-4.206764422506415,-0.2851438033318745,-100700.42677053018,-0.3052919333036157,-4.432847625004694,-6.595590649989291,-4496.642740893591,4.251654562265651,-3.314872730941355,0.9885544776916504,-2.174064213314085,0.6946251392364502,0.634937047958374,-1.099518416309398,-0.8291821479797363,-1.628608435399219,0.19089789070349925,-216.45350856206535,0.686823844909668,-107586886374.59406,-0.40466320514678957,8591717124678917.0,0.2508356273174286,-1539.605405463544,-883.9390209939405,-12.10427802269605,-69388381.89853537,-0.7864413261413574,-0.16172254085540772,-1404.3740482530661,-10.542703333332689,-8.780207276224031,-63650446.19039583,-692.5097333251551,0.15131604671478272,-33523890168.899637,-12.558356126378678,-2.399867896445843,-3.0247158598284527,0.5024552345275879,-0.9033987522125244,-5.189068834152341,-6.165968334780792,-12.696062268846223,-33518256905.212675,15532764387752610.0,-0.14665758609771729,-92849972.50617527,-186.1294493928652,-0.8164553642272949,0.4772927463054657,-0.6116976737976074,-3.3970151322543824,-62614970.784790318,0.3102230727672577,-0.5928411483764648,-0.007112383842468262,-15812378541197564.0,0.5731198787689209,-25.870083228811376,-34.11973480535675,-1004.38704016681,-1864.705732414669,-1.0108580905616536,-0.4606508058729776,-0.46279895305633547,-6562394.305515705,-102.89214002259898,0.46802517771720889,-205474726533.86682,0.7362887859344482,29399351369807637.0,0.6466658115386963,-733.4733686860308,-420.70741254602918,0.3898009955883026,-2799081.895201434,-0.9684996604919434,-0.7052159309387207,-668.9937197761824,0.9499814510345459,-0.4025512933731079,-2567616.764346536,-330.6003136238116,-0.6461899280548096,-64024761866.12138,-0.7626802921295166,-3053408075853.3228,-0.30590593814849856,-0.1498779058456421,0.8425061702728272,-0.4797614812850952,-0.5954372882843018,-0.7703409194946289,-64014003318.032169,53151620422550099.0,0.5949358940124512,-3745506.7817083636,-89.14338578473621,-0.12526309490203858,0.8127365112304688,0.07706916332244873,-4415921356886.749,-2525846.7010041067,-0.6487267017364502,0.6117267608642578,-0.5769274234771729,-54104686054615810.0,0.5296237468719482,-11.899056847929263,-16.653671426329504,-477.89761814239668,-886.5313066542392,0.3054670989513397,0.5965001583099365,0.17004239559173585,-264723.1720486936,-0.46597158908843996,-16.942763719620744,-0.9313735961914063,-7.351342217826105,30.296474391478499,-0.12403404712677002,0.22380530834197999,-0.8008837699890137,6.248816925307375,-28.707761333126539,-18.869884829174358,-25.217419427026976,0.5298058986663818,26.80159169429859,16.691175180848629,-27.769598896714077,-0.4771512746810913,0.08966481685638428,-0.7214887142181397,6.9267015024710469,23.728534956333435,-1.411278068199982,-27.053271727805876,-4.861653897073293,0.926182746887207,-0.963620662689209,0.6152742874602833,-0.04227721691131592,51.047489159851767,-35.05959606457567,-22.111779131338126,-0.3759831190109253,2.7288091114147949,-32.903082978912888,-5.561865806681809,24.50548996997417,-5.731912784007126,-32.339592114141577,-46.77796568322428,0.08835136890411377,27.220727597395606,-29.93197956309895,-0.4965933561325073,-22.81595711596724,-0.5832126140594482,0.011461138725280762,-0.9680245868060371,0.4260351359844208,-10.306060829851204,-0.840806245803833,-230.3932173890401,-2.5758414254328776,-2036672388415.6667,0.05312108276747918,222296335422399050.0,-0.36997711658477785,-1640.2057956915548,-947.1530657729091,-105.27688640554169,-27964639.621686125,-2.0694091201959647,-2.4363464053105354,-1482.469043345568,-85.42940829578477,-72.80340636985193,-25652159.017668528,-731.3791721076431,0.7680497169494629,-634615590693.1614,-121.3943458651951,-29475784080674.404,-24.324620612121089,-3.0132160950285704,-1.3621001899367405,-45.838591598139739,-48.21678519483011,-113.60054199401518,-634508951594.5231,401896129816509800.0,-4.406799980325714,-37420039.80687426,-199.84481268651568,0.2910616883425764,-4.6342419739103379,-0.5282999679510216,-42628676285434.808,-25234843.40207905,-2.76676839893991,-5.803080098584538,-0.280753493309021,-409094719923475990.0,-3.9483230958981236,-28.136455458226377,-38.69401852596794,-1071.4116806593984,-2006.0009380974093,-3.303489887095539,-6.106415191710578,-1.9440244295134944,-2644750.195884757,0.9885001182556152,-0.28321167332178207,-0.3263958692550659,0.5433022054707265,45350.09958146142,-0.4847172498703003,0.6331391334533691,0.6463031768798828,-0.2860493802046716,-2.601083973945971,-0.5443650224239595,-1.3961251899888819,-0.8771474361419678,2.017968796619777,1.9938215246856357,-1.4745191354720285,-0.06768357753753662,0.678943395614624,0.6982982158660889,1.1922362174155763,-956719.8434462057,-0.08705490452743364,-2.143311983457732,0.5285621255764017,0.719085693359375,0.34751126170158389,-0.7660909633799974,0.16575372219085694,464520.12440228756,-2.78721562430168,-1.423328707605456,-0.5658564567565918,-0.5330721160161688,-1.3311132584259445,-0.9897453871040691,-1383633.0986667239,0.5331080482289342,-2.1519076405048955,-2.921142799825575,0.1582726240158081,701168.866303748,-1.5636604565917177,0.39348575472831728,-1.3404352383959606,0.38547107577323916,-0.7287561893463135,-0.36499370239967146,0.5060470104217529,-1.2892797708107585,-0.5950839519500732,-0.5831000804901123,-5.766590181614767,0.2575415934051753,-1.7647738361206245,8.80882056868968,-16455.630147218457,-0.9770097732543945,0.10845816135406494,-0.21953017025579955,-8.434657649659086,-6.306520438485225,-7.644962727589792,-0.013826251029968262,-427239.128162595,4.709876352008079,-8.013573646445292,0.37326523661613467,-4922.2990764023725,-1.0138023118438178,0.7616855353740275,-253789.20652786178,-1.033523220390626,-10.219747860914005,-0.8354564924728806,-109599.11728992602,0.9481711387634277,-0.3574561640028406,-0.9753262996673584,-636212.1974184432,-10.513883804023248,-7.273424021411387,-0.5303518772125244,-9557.49732309539,-11.343420448460112,-2.1439701325425695,-299185.36394090307,-2.724257409354473,-9.288396727610854,-14.645711708121965,-13359.961535022981,8.178480975009784,-9.669778938111373,-0.4841362237930298,-6.090968354259169,0.4917156398296356,0.05859982967376709,-1.2094694778424243,0.4169261157512665,-4.241711449689676,-0.3786500471692871,-0.5007760524749756,-8.923075114419627,0.48842722150348369,-3.7274611036307068,15.544375707696542,-26676.132479020675,-0.5395731925964356,0.003809332847595215,3.098426659938905,-15.129752861620128,-9.75364561177593,-12.443259440340365,-0.8284897804260254,-692571.6400162092,7.780377251816629,-14.690110698220277,-0.3148301839828491,-7978.132746765757,-0.6229359139878982,4.062674012877101,-411400.27197037808,-1.2128899383289274,-14.935114408285396,-2.8000839948839988,-177666.06745803404,-0.6397202014923096,0.4239669490571251,-0.9596002101898193,-1031323.6543558935,-17.779817382953806,-11.980681662824546,0.2814008891582489,-15490.878745987944,-17.185930372296324,-2.410227137624105,-484992.1196016014,-2.950645694720749,-17.324909484685816,-25.78614814131426,-21656.958914378356,13.788109667924779,-17.309970119751517,-0.44312727451324465,-12.249178425451806,0.34531256556510928,-0.8781695365905762,0.1954553303662913,-0.6039481163024902,-6.034339493264702,0.6799645361177975]}