{"numOfInputs":50,"numOfOutputs":40,"biases":[-18.196362557121387,-0.8296816124336549,-18.487704099423014,-19.331509157901239,-200.0428459555469,-18.196402603567515,-1.2627903285609459,-21.25919488729794,-18.18941477164769,-18.18907255451411,-1.5978538748323963,-18.191570270247249,-1.2661820792800239,-0.3290872018827787,-0.3300757334150369,-19.320688545021445,-2.1217544209367698,-18.189911435943846,-0.820707040355516,-0.012780138430517029,-19.332274808712574,-19.32763216635663,-19.01862143308456,-0.0008208635766699834,-0.3127899423391183,-18.199715604462719,-1.2669822045673874,-0.006626398968027231,-0.0015645924092891585,-1.5789894967063534,-1.566744506901209,-19.32662153445697,-1.1446577481911345,-18.19708587947622,-1.2651710836146595,-183.11577613263445,-18.198253044224964,-0.005177064239978788,-1.2614226706332042,-18.19918922259984],"flattendWeights":[-1.6433418452095044,0.7068121433258057,-695.010618811828,-699.9666903542471,-0.224434494972229,-2.0670271571593226,0.885077714920044,-0.8034405708312988,-2.2082072609611456,-1.050474383460752,-724.6911215670443,-2.118054192774353,-4.811974315516499,-718.2080327863501,-722.384517853126,-703.7921684468696,0.41358682513237,-0.8482033855451878,-0.22943341732025147,-4.2846099558540688,-702.7364419879615,-687.5575683010436,0.5980265140533447,-0.08166149876336491,-689.852219457717,-4.834994542743029,-0.05442154407501221,0.757413387298584,-0.6978051817634117,-704.5749650046354,-689.4772253405561,-704.5278948108339,-700.8903267913827,-4.890584056663659,-0.04451096057891846,-0.4584137201309204,-5.614745811351674,0.9107296466827393,-0.8660111427307129,-5.166989105648205,0.42951199412345889,-0.47671782970428469,-0.7059862613677979,0.0061498938616510278,-0.5905835628509522,0.9859127998352051,-1.4962940885236585,-0.050551533699035647,1.009154839219165,1.2022546183414209,-1.0607250072436248,1.4632312228912737,-0.9699485301971436,-0.7608221626684583,-1.7707848080921798,0.05273425579071045,0.9329230785369873,1.56062755296771,0.7650690078735352,-0.8593879672839346,-0.45390674291953705,0.47619963523490707,-0.6811912059783936,0.6004798412322998,0.523566484451294,1.5969223859520155,-1.6235250890523745,0.6481060981750488,-0.7079823017120361,-1.2118736394351162,-1.0276103867466249,-0.44168055057525637,-0.5718684196472168,-0.22326655876311719,0.20470809676146338,-0.12051141262054444,0.20088959164050985,-0.3119013466138161,-0.3025387072494378,0.5690876399727339,-3238506.283373464,-0.8340258598327637,-3235638.0609626395,-3237569.607586471,-3236532.0529691989,-3237953.458892777,-83690796563038670.0,-3236616.7183621509,-3238091.5037101504,-3237455.886825039,-84402899749029890.0,-3237996.2841013639,-83593127243510740.0,-0.437796950340271,-0.29777848720550539,-3235581.556510739,-84601464021874820.0,-3237913.4658974267,-0.12654387950897218,-0.6191599369049072,-3237248.151265423,-3238160.548099515,-3236363.050437412,-0.2085477113723755,-14.419655280963387,-3237975.33219018,-83710037563893950.0,-18.024620395963159,-0.8095488548278809,-83726059492842110.0,-83685808126477060.0,-3236290.432728566,0.6309901370269188,-3237507.9244756277,-84110431583371700.0,-84014787620020370.0,-3237537.270269501,-0.6709384918212891,-83986113132379150.0,-3238514.0102238587,-0.3078416585922241,-0.5351152420043945,0.7709314823150635,0.4436762153315538,-0.4599400758743286,-0.6189773082733154,-1.0016323847570499,0.9947664737701416,1.9092865610728019,0.35317049447171647,-2.44936166277164,2.140043916211664,0.6411416530609131,-2.6503008191686905,-2.6708811900613518,-0.47817671298980715,-0.2071455717086792,1.4887531914728956,0.2408045530319214,-0.8340131677512526,0.2938568284674829,1.420993789172042,-0.973395586013794,-0.744683027267456,0.8062567710876465,1.4345213632695282,-3.7638754630643787,-0.8051564693450928,0.021099209785461427,-1.6152187828764889,-1.1055390449897929,-0.6653711795806885,0.49727579951286318,0.2912693701877393,-1.671819342903093,-0.06613099575042725,0.47309448696737396,-1.0475765173870498,-1.3125254822161128,2.6422136237449216,-25.235281262195487,-0.0900810956954956,-0.6803121566772461,96.2722924371759,-8.579658060527185e29,-58.02892042397689,-8.527305090725097,-1281186335649642.8,-41.52526629393106,-33.488192034666308,-11.664029392844303,-64.37694649571425,-133.0352559755418,-11.34172630908724,-11.048617495857162,38.349801360284818,0.3825220763683319,3.533106587138705,0.5182151794433594,-120.52968210772693,100.00902562615195,40.534901306013747,-0.21544206142425538,-8.960463765642717,-0.9864757061004639,-155.30864009019877,-14.290253605388874,-0.09298622608184815,-16.63913354043956,-12.007008978756702,-5.162144872814582,75.76513739656174,70.1049252495158,-122.95993551565057,-3.4141009416387919,-8.579452324359022e29,-136.1658540199998,-5.536595832654844,-1.605673381049629,-152.5573740017495,0.15840423107147218,-99508.39147708475,0.7700366973876953,-100614.23018791435,0.3566994369029999,0.8151462078094482,0.040213704109191897,-0.21060311794281007,-0.14325964450836183,0.3047029674053192,0.08843910694122315,-0.24476420879364015,0.6526849269866943,-0.8400437831878662,-0.6010959148406982,-100745.70895479329,-102257.15775320718,-23.363905538779308,-98431.82760903063,-0.03391563892364502,-100763.6820833709,-99933.68579241837,-100789.95405249993,0.4087187945842743,-25.45162960767275,-0.700584888458252,0.9465656280517578,-32.59970930454145,0.9739902019500732,0.47362133860588076,-0.2579256296157837,-100849.2007351119,-100584.3775754857,-0.12562739849090577,-0.6743571758270264,-0.15278708934783936,0.48154494166374209,0.3989064395427704,0.549771785736084,0.17088758945465089,-6.42976020754447,0.411530464887619,-3176.986121467421,-3184.712628226348,0.5182290077209473,-16.327237128655999,0.7223491668701172,-0.9352643489837647,-13.212122245416908,-9.529780664333149,-3312.3565903379745,-18.677573180465744,-35.52482546916133,-3278.557035689261,-3295.511640654364,-3214.47808845569,-0.3101707696914673,-0.9571884960292206,0.5526509284973145,-31.860466834011335,-3196.733596319668,-3141.5730413665983,0.29062363505363467,-2.7240193772214038,-3156.1272570977267,-43.843926951017198,0.1223677396774292,0.004829525947570801,-4.739838071296211,-3215.8002887747757,-3153.5662047382275,-3213.4240337740894,-3189.153263589197,-33.85587993094399,-0.9310483932495117,-0.255529522895813,-36.731827985357138,-0.28581106662750246,0.13740003108978272,-44.81695077054597,-3.9903124288778506,-0.5948326587677002,-743.271530940627,-733.6763154284462,0.9408907890319824,-12.024251952173705,0.31348487734794619,0.5492050647735596,-9.104398335993795,-7.74083812099847,-774.3527286527373,-14.694177115827497,-26.612741689974848,-766.8127126278023,-770.7187732800323,-747.1828627517323,-0.783522367477417,-1.2655499778826705,0.8215897083282471,-23.291428086206638,-734.3281215605107,-730.9185923299677,-0.3476928472518921,-1.3298658835768034,-738.4023735555529,-31.712544748618336,-0.7763643264770508,0.4840047061443329,-2.8173429499741839,-752.0964055720369,-738.0697393868608,-740.8572366828663,-737.3833210942365,-24.951683352366304,-0.12404239177703858,-0.6029579639434815,-27.454875064552849,0.5259363651275635,-0.19995296001434327,-33.450567316700048,-16.471125979583726,-0.775198221206665,-0.6327953338623047,48.97683500851546,-0.23590123653411866,-38.17782166263952,-25.773898158627508,-0.7098784446716309,-7.468616086657734,-15.166856205752424,-29.1434982887054,-24.521113673775564,-85.89055964114601,-32.95689616436701,-31.026267749746788,93.22520435765894,0.152671217918396,-20.23831061347593,-0.02488124370574951,-82.01305891157524,60.36000825220785,-0.7033401077965262,33.20059238923667,-5.201727440048422,-41.98551126222459,-82.86127956904594,-37.475728044804579,-53.039591338274487,-11.616443002735723,-32.159802423278,-12.51391227340688,84.04640058691278,47.709986523786607,-69.98693645630164,-10.75524738528733,0.40218135714530947,-78.06135423510914,-18.602268474673968,-5.514552924426912,-71.43409941492775,-965150.8037999515,0.9694550037384033,-964294.8361785384,-964863.6415953926,-964562.658718651,-964984.6381720126,-8.561981709516728,-964585.9291330277,-965017.4094015166,-964833.4243904658,-10.240107637421666,-964990.4883820629,-0.5692737102508545,-12.7372553057376,-10.25000908494475,-964284.8207234008,0.849376916885376,-964961.7322519071,-0.0017212629318237305,-2.201988240551772,-964773.5389850969,-965032.8880335376,-964515.2393485983,-0.6334347724914551,0.55108642578125,-964983.2232829853,-14.492111855251617,-0.9234726428985596,-0.8837013244628906,-11.921273364740634,-4.394782033690298,-964492.9397629334,-0.3232370615005493,-964847.6815298303,-4.147466179915257,0.9534718990325928,-964856.1816876569,-5.834649813482852,-1.5669593747537243,-965139.4473764781,0.9118974208831787,-0.9260842800140381,0.8183426856994629,-12.760503206638088,0.3946933448314667,0.10160410404205322,-2.458308008709277,-0.9474775791168213,3.576708891138487,0.9300569782386647,-2.7036537972661445,2.196435700960156,0.8687117099761963,-2.8032632916231905,-3.3707464809049405,46.320224120257,0.026866555213928224,-22.084966256079214,-0.9194233417510986,-0.9251722184213419,-3.7894469171750488,-29.047309567063409,23.681508791339714,-0.9793667793273926,-28.146559932866678,2.2773836419591766,-4.637570093616539,-36.76041535601869,0.3360128104686737,-2.952263421932066,-2.1102073798002229,24.150388352769473,2.7523311346812444,0.37265927312006238,-1.9851849418025494,0.9378159046173096,1.2676734753339643,-1.7949422155761799,-0.47340524703811778,4.312999556739083,0.627446174621582,-0.04367554187774658,-0.27946245670318606,5.306400764847764,-0.2526756525039673,0.5136218070983887,-10.941000783083178,0.6527926921844482,10.827085793711648,4.378330404862906,-12.613193689093132,9.870901598961265,0.35123321413993838,-14.145354881116079,-12.998817217897919,0.4684295356273651,0.4542863070964813,8.89781406943805,0.343854159116745,-2.508814666012938,1.1802432197071187,10.697355310991063,0.4654216468334198,-0.8009731769561768,0.7522244453430176,10.074484702560618,-17.495751398328538,-0.849858283996582,-0.8490486145019531,-14.839110391806122,-6.461416386577557,-0.26298773288726809,0.26009270548820498,3.852810928587391,-4.873730070541461,-0.1456512212753296,5.067648384546804,-8.17684316959226,-1.6815174092725805,16.441456702840296,-6.193292271489873,-0.8534834384918213,-5370.546987977064,-5404.890215267188,-0.7532799243927002,-14.848167726709852,-0.7023708820343018,0.7738637924194336,-12.689924971944772,-9.3681448548391,-5602.1244879547085,-16.442328723961919,-31.98701092711922,-5544.035960820703,-5573.352151937724,-5443.727896851544,-0.5503172874450684,-0.8149462317387125,-0.9172494411468506,-28.171963340442326,-5426.05260331937,-5317.354891887646,0.32607242465019228,-2.4181751327793439,-5335.287542491581,-39.082925856916137,-0.15859997272491456,-0.37595975399017336,-4.196998659767076,-5438.168077524,-5331.7455017035445,-5448.007137584926,-5408.332698537563,-30.110479814294828,-0.9181969165802002,-0.6781320571899414,-32.02019407068807,-0.007969260215759278,-0.7063205242156982,-39.354753885007607,-37.7599581662081,-1147351.605415555,-0.1871858835220337,-1159806.522060702,-0.6471714973449707,-91.99939332230257,-9.1679972338617,-0.6934230327606201,-71.8876693559597,-54.64676045705154,-9.904206559479615,-108.23334620094205,-210.07621703920263,-10.289978392493872,-9.334273920230512,-1162038.0937227843,-1179027.1869011846,-0.8394321436500433,-1134940.1795567587,-189.80480184045286,-1161627.643898142,-1151845.2575002157,-1162367.3091887024,-14.143856555203245,-3.1926592556457655,-248.36144466743955,-14.095152869705924,-2.4367398108604596,-26.532349920980534,-11.646231994647799,-4.94929261716319,-1162950.5051025588,-1159671.155289321,-193.80367075803705,-4.328736312573014,-0.3884233236312866,-215.32878388500675,-6.22699896486306,-2.414553391873915,-248.56166710928265,-18.56710417704548,-0.14741313457489015,-0.4436239004135132,75.84095563217058,-0.5911431312561035,-48.16903972924734,-22.704320507163037,0.30585190653800967,-17.72505521435347,-20.405316689772083,-28.618465496281325,-37.31423186198018,-107.59804877372607,-31.03543363491755,-28.769701399834959,59.407915655876639,-0.5177280902862549,0.8210817391242681,-0.5887973308563232,-102.38826421729674,80.05208868954631,30.047345532965374,14.563920429560215,-8.01827608369857,-18.211328887482506,-111.41010284718164,-37.116447512331358,-21.638961242145738,-13.911874569874313,-30.255945181804799,-11.845835219066052,76.44600098746679,57.0084418364821,-92.46070854219838,-11.315788387832433,-0.5536785125732422,-101.03467247106096,-16.618730813468948,-3.990858264883454,-101.6628148051164,-3500413.063675884,0.0931469202041626,-3497315.064431139,-3499387.2781951937,-3498280.3902066505,-3499816.6165598009,-10.378286665918063,-3498370.0420813548,-3499956.2526234888,-3499274.1757611536,-11.78902614582707,-3499852.7668174055,0.00883638858795166,-13.090286792619013,-11.319060191018077,-3497278.164223907,-0.43507516384124758,-3499752.408242607,0.08978760242462158,-3.58515284237125,-3499049.655817295,-3500009.809523632,-3498111.3416751909,-0.4130767583847046,0.18435609340667725,-3499831.246914155,-14.847318745573256,-0.7201471328735352,-0.5846719741821289,-12.599718596738619,-5.1881568971008999,-3498033.54646158,0.658635139465332,-3499329.609627626,-4.350787095761425,0.5995922088623047,-3499362.2772958215,-7.209758276987332,-1.886531196995957,-3500408.439920479,-2.053184203647866,-0.4270824193954468,-2933.3496160373943,-2956.6221033906295,0.7216711044311523,-3.625351903370045,0.052405476570129397,-0.9331951141357422,-3.5883848631660766,-2.2941152137546085,-3059.9295870295323,-4.8909307101943499,-10.185940521707352,-3028.8716296662797,-3044.01286000801,-2977.287435663152,0.3683941066265106,-0.4539364017141366,-0.2517467737197876,-10.023437291783337,-2969.4962330671224,-2906.881577536174,-0.9221055507659912,0.15702029050990327,-2914.8744840049562,-13.423067195074618,-0.781200647354126,-0.3967095613479614,-2.310334986890236,-2970.222996117119,-2912.364306058627,-2979.8542825937475,-2958.521378874657,-9.40529967875256,-0.8324301242828369,-0.6178834438323975,-9.731968307646854,-0.3090020418167114,0.3709704577922821,-13.613939161346796,0.06801760196685791,-1832.8933372756633,-0.9517643451690674,-1863.3472899701378,0.7409811019897461,0.5628783702850342,0.5439267158508301,0.19573509693145753,0.27698442339897158,0.7690696716308594,-0.9379644393920898,0.5251214504241943,0.7474279403686523,0.09433972835540772,0.5435225963592529,-1824.6070217090514,-1883.0917055897073,-16.513351310640237,-1813.8275787340783,-0.16749894618988038,-1858.5766522609142,-1863.5622520332774,-1841.7060452337487,0.6582362651824951,-19.99377021990964,-0.6644952297210693,0.32524845004081728,-26.783715345926255,0.9818942546844482,0.32933828234672549,-0.08374559879302979,-1839.7581961673213,-1852.096172719764,0.1842280626296997,-0.315243124961853,0.005747675895690918,0.5189411640167236,0.9116551876068115,0.67803955078125,0.4445969760417938,-0.4278463125228882,-0.2508753538131714,-0.08289015293121338,-7.474233113134226,-0.13016188144683839,0.3019354045391083,-405590970621.83594,-0.7996954917907715,-0.8833482265472412,0.35329553484916689,-409042038532.8359,0.9344277381896973,-405117635492.34534,0.02643406391143799,0.8181726932525635,23.63628548673225,-410004341192.6697,-12.757164561226859,-0.052043795585632327,0.7803938388824463,-1.6502029745214245,-16.17691099408156,11.02355832803221,0.17146193981170655,-14.834637681408964,0.7529439926147461,-405684218345.73456,-18.451412976816255,-0.9134500026702881,-405761865469.2194,-405566795145.99994,13.598085628255076,0.8133757899440252,0.839026927947998,-407624649141.05133,-407161129501.2878,0.9473750591278076,0.10737502574920654,-407022164241.8607,0.31666871905326846,-11.302409451247613,0.9701888561248779,-0.36961519718170168,33.11056213264925,-0.716111421585083,-25.156245872866067,-21.450619809298627,-0.30246102809906008,-1.0302871708307982,-7.927839215045516,-24.853972612857448,-12.541304491701734,-56.753767212874837,-27.72452705815407,-26.483163530255216,70.00565247269948,-0.423946738243103,-12.82813597106027,0.1494969129562378,-56.39296462972004,39.617277764977668,-1.1705153222189285,26.411590541436888,-4.543123567019679,-32.76606658144277,-51.218367263661317,-32.344370048783719,-41.979822845342557,-8.05969555839451,-27.3364234438661,-11.288600843082133,62.09587532168601,32.802376771900458,-44.79187847542412,-10.63702223145071,-0.18116819858551026,-50.65863611570675,-14.432900060402642,-3.5820115038279449,-42.14510022016488,-22.159761930120195,-1176917.1430251287,0.8839266300201416,-1189763.4946251822,-0.7142252922058106,-53.455777594221348,-0.10547848991139021,-1481342723676871.6,-46.21047907209987,-32.346913473206999,-1.4285938290751692,-66.35649280126293,-123.46611896628028,-1.6915449625927864,-1.6829243370462746,-1192001.3188625929,-1209409.403358999,-9.021289146678914,-1164186.4195290118,-108.84061283370883,-1191632.4098349009,-1181562.597117607,-1192315.776923929,-8.858476344009774,-7.760764191100299,-148.34049422538963,-1.594088838005712,-9.441148218801665,-15.42476978345062,-0.41377270582424438,-0.7230487449208806,-1192965.7748036916,-1189603.682444403,-115.3324201841317,-0.23078093872203307,0.06223142147064209,-127.93956333846227,0.18689911279041555,-1.0657231660004143,-151.52730261881235,-0.6518125079106191,-0.4159506559371948,-0.8847510814666748,9.60043297122754,-0.18038737773895265,-2.832046776866852,-10.504008443541327,-0.7889962196350098,7.531176637352887,1.207989942621434,-12.057902579450387,6.389171137553324,-6.141414641633234,-14.202689921020302,-12.834026356608913,2.200925850555951,-0.9113516807556152,9.180761129426838,0.5021872520446777,-8.886489107392994,6.758977647082116,12.748587914320483,-0.8640925884246826,0.27711699111172236,0.16733896732330323,2.8123939873135477,-17.29304805059888,-0.2686878442764282,-0.6730971177080337,-13.181802238698584,-5.3445624809726,3.8092914077156179,3.77314484241755,-0.5569535998018839,-5.455852354054097,-0.37830841541290285,-2.207842685758364,-6.833938575809481,-2.9488912434295497,7.77069161927897,0.47016021609306338,-0.728421688079834,0.8442800045013428,7.423487660813678,-0.4788762331008911,-0.9910945892333984,-36.79607775686975,-0.5697300434112549,36.79420373086543,12.639056018013637,-44.25342039544654,32.557701368615138,-0.052906155586242679,-48.114323294137978,-44.35034858470275,30.12655488187583,-0.6044125556945801,12.150465924562692,0.552793025970459,-10.198489881052254,1.6270349846318766,16.613235179916385,14.451219322923978,0.9041328430175781,-19.60354607142349,32.502423495357529,-56.43947724476847,-24.612270432994856,0.5357916355133057,-47.77712109793962,-19.21811086800289,16.47146567357322,1.7409259217687959,15.493450617385769,-16.921116968746867,-0.3093909025192261,15.78129923826861,-26.51470007678571,-7.898236827625401,51.87471947566615,-0.8661296367645264,0.7220332622528076,-0.5480237007141113,1.9628324814223735,-0.8361330032348633,0.6653404235839844,-3.3157921926032567,-0.9074819087982178,2.393421411404903,1.4144185781362824,-2.8273390359534886,1.4135467830511766,-0.5776302814483643,-3.2881621057466097,-2.8665012290296447,-0.5622556209564209,-0.3415578603744507,1.0716438476184056,-0.43017280101776125,-1.034225800578058,1.2623694246248243,3.210127635714042,-0.7652966976165772,-0.8470151424407959,0.6303796768188477,2.825977541936126,-4.7313577519858509,0.5541133880615234,-0.3016263246536255,-2.4088870673402886,-0.6678237874210838,-0.9341697692871094,-0.6687953472137451,0.6938338190729899,-1.0860903813175525,-0.3959692716598511,0.2642166172443574,-2.6219257816564949,0.24053107450040207,3.3352778826089546,-9.77061375008957,-729995.9254231202,-0.6087818145751953,-737976.8281039232,-0.08644425868988037,-25.62055222264961,-0.6403441429138184,-0.7179632186889648,-21.01489021919985,-16.07090470089751,0.6286821365356445,-30.807970611154738,-56.21451920635822,-0.31970536708831789,0.25975653529167178,-739362.2866815296,-750149.2860412065,-4.078655580423318,-722098.9166660556,-49.39555814216543,-739136.4532584603,-732880.0856235188,-739549.7815005267,-3.368781372031731,-2.2649502561762189,-68.08455229891784,-0.6923305988311768,-3.3316932705518176,-7.405395453380884,-0.4011927843093872,-0.28845393657684328,-739962.3696019702,-737875.7310984791,-53.47483782572763,-0.49440109729766848,0.2114318609237671,-57.835535997422358,-0.9661691188812256,0.40117356181144717,-69.07618109540823,-3.9349752993467899,0.8369066715240479,0.024820685386657716,17.41572045854969,0.004848122596740723,-11.492969678509258,0.15917456150054933,0.5883958339691162,-9.52348485444715,-6.739652177940298,-0.995098352432251,-14.24961171642388,-25.857527361541437,0.5413062572479248,-0.7256314754486084,6.793951076829379,-0.4276202917098999,-0.04517772472054944,-0.7406871318817139,-22.910451456340064,20.332846885708788,6.358453252979974,0.3633515536785126,-1.4410523930879642,0.8356993198394775,-33.08521252502056,0.16081154346466065,-0.7394108772277832,-2.4840537227353107,0.3304915130138397,-0.633629560470581,15.43298206101409,14.316498418112968,-24.35086211282005,0.11576354503631592,-0.4315115213394165,-27.18109797195781,0.3045472800731659,-0.9166088104248047,-32.97582051710529,-0.4600910092483791,-0.35696351528167727,0.5599977970123291,-18.285091836748888,-0.8155698776245117,-3.7182839291974725,-19.68047234520907,0.5723171234130859,16.541637632175296,5.298340455412212,-23.290717971459864,13.305520931495682,-6.571370521222457,-23.618046737137325,-22.73476838498132,103.28218468420106,0.9534690380096436,-37.969991488441738,-0.12240278720855713,-11.653621818658412,-2.1926235134150779,-49.08003793494327,49.49569180562442,-0.7007055459128065,-60.97785811773328,8.490070885142203,-28.471511068920404,-78.52951116306687,-0.051337687553947759,-23.574094226291064,-9.530976673999899,58.01197701357986,8.106553970264093,1.3450446758407693,-8.27748537716239,0.43707582354545596,0.7341561301011922,-12.58606054257687,-3.837948372091559,17.673724051122137,-0.5452039241790772,0.7440719604492188,0.2993147075176239,0.3085491359233856,0.5651252269744873,-0.20399630069732667,-412235846555.4371,-0.8195538520812988,-0.7187559604644775,-0.01706087589263916,-415743453985.1535,-0.5219833850860596,-411754756683.65704,0.21093976497650147,0.5419661998748779,0.8768537044525147,-416721522235.4278,-0.9079971313476563,-0.30851900577545168,0.08265149593353272,0.40828821063041689,0.48558685183525088,-0.5155220031738281,-0.6725921630859375,-0.26246774196624758,-0.21217405796051026,-412330621973.8304,0.7297337055206299,0.1974548101425171,-412409541207.707,-412211275008.16815,-0.14607608318328858,-0.5815374851226807,-0.16605842113494874,-414302843226.0258,-413831729653.69257,-0.8884024620056152,0.22025001049041749,-413690487698.25934,-0.7766382694244385,-55.11237009661964,-2779109.2689229829,-0.9573698043823242,-2809443.743156147,-8.788604758112862e30,-135.1996577456703,-2.498197195045784,-4488954733732937.0,-115.56150123565225,-83.12441476052429,-3.2180149947979115,-165.3926323301379,-308.20555662663119,-3.512114417212313,-2.435585179020476,-2814686.4309535918,-2855835.8654681479,-42.590095155965418,-2749048.7233377748,-274.00649502105338,-2813846.235235018,-2790102.037745332,-2815453.154351795,-19.908153447452226,-40.47978952083381,-371.19449983785258,-4.444644532489421,-53.79628606752795,-39.19842106443787,-3.6079463366843229,-1.0180641827147683,-2816974.615822834,-2809055.0829518197,-287.31594409612907,-1.2790632860017628,-8.788394011501078e30,-319.39098400866387,-0.6744886764401434,-0.6331704862038013,-377.74393923008639,-0.5461070537567139,-0.4657202959060669,0.640641450881958,0.42355758800438467,0.5518209934234619,-0.3766418695449829,-1.501028762406484,-0.649357795715332,0.18608792052954599,-0.0753599158007076,-0.7365257574187306,0.9572289655676374,0.9109096527099609,-1.490007565846196,0.08974524975841546,-0.6972861289978027,-0.014552712440490723,0.6160011631988793,0.26589342951774599,0.4344866911651282,-0.28758042057679497,0.2428711914917577,0.8217220306396484,-0.6957147121429443,-0.4522475004196167,-0.35096971519706229,-1.3432274737602357,0.010759949684143067,0.5352699756622315,-0.6268825286310904,-0.6008931175283839,0.6995260715484619,0.5385456085205078,-0.40406718886767825,0.5083072628195586,0.42740270495414736,0.07548550132441785,0.10298299442327654,-0.6833026870024157,0.4060490084486207,-2714102.609350336,0.4000868499279022,-2711699.4923259576,-2713318.4972095277,-2712448.960355537,-2713638.192997209,-13.397563982766215,-2712518.205996865,-2713742.623619194,-2713217.8017282888,-15.19614009732729,-2713662.4469972478,-0.7890887260437012,-16.427620532351356,-15.52801906538235,-2711626.3632960307,-0.041635870933532718,-2713609.521845044,-0.9809515476226807,-3.8801981513127759,-2713049.1647591439,-2713815.2152310425,-2712294.5090374706,-0.11924350261688233,-27.678294024246765,-2713646.4180520388,-19.78921483251537,-35.89750470032357,0.36670491099357607,-16.050881095315544,-7.581609956641621,-2712232.7419098496,2.6656762843612475,-2713260.2057606407,-6.14762249569213,-0.9716012477874756,-2713283.4146550528,-8.801245716819134,-1.714570206974061,-2714089.9270031538,-0.45072829723358157,-0.5409278869628906,-63.03302104543874,-62.8964288882861,0.09132421016693115,0.24089133739471436,-0.4230283498764038,0.26697298884391787,-0.47050726413726809,0.7091841697692871,-65.50930480506466,0.2491699457168579,-0.3176766633987427,-64.10731679708795,-64.86570488891769,-62.47616919000704,0.4702000319957733,-0.9274566173553467,0.17294323444366456,-0.5766429901123047,-63.8255276967068,-61.968724860590707,-0.00245511531829834,-0.014693140983581543,-62.142673037017967,-0.2184520959854126,-0.4005359411239624,0.5551164150238037,-0.2527216672897339,-62.484316804608187,-61.37200468396179,-63.153837877399897,-63.082846881000708,0.4667160212993622,0.5541236400604248,-0.2422884702682495,0.3071872889995575,0.6539840698242188,-0.49839890003204348,0.883270263671875,-0.8259921073913574,-4567.256090290675,-0.5817532539367676,-4613.082531486592,-0.3972855806350708,-0.38836371898651125,-6.8726096802495919,-0.6757395267486572,6.186402652802314,3.1143250554072976,-9.000976035228023,5.866028664970306,0.9658617973327637,-9.658739355173508,-9.115971192320084,-4625.027646022323,-4693.317649386229,5.587236408735749,-4517.076341353153,-2.95587727095086,-4622.3099968704855,-4577.771643654641,-4625.880102641356,-0.42193424701690676,0.3656606376171112,7.131150344459024,-11.150594310424586,-0.9867773056030273,-0.6113877296447754,-8.40812554916955,-3.609935398669269,-4628.309207073953,-4615.1960069785,3.616598811089624,-2.502888299720888,-0.04213106632232666,3.439865827736204,-5.982800191555515,-1.6290999451043094,10.62481250226148,-0.8840968608856201,-0.14458787441253663,0.5634114742279053,-13.146205575444057,-0.5484988689422607,-0.7960331439971924,-6.118936497840181,-0.2836097478866577,7.232295200090513,1.7590131315438893,-8.164416482030424,5.730123228562138,0.14319002628326417,-8.363343545108734,-8.390267782458319,52.13433291138218,-0.7882511615753174,-20.975049513216005,-0.668363094329834,-1.0211594226795673,-3.1219966604926214,-28.891283137486999,26.10565397287081,0.35226747393608096,-30.843202587837177,5.175059304209417,-10.79483074573109,-40.779582088969018,0.7205696105957031,-8.84073150839764,-2.836081716260986,26.96296301177336,2.6935698384853099,1.9343326223183335,-3.096661582584033,-0.46749794483184817,3.349770643257933,-5.842148316978368,-1.7161213496014994,10.282495075854392,0.38378140330314639,-0.6634204387664795,-0.9679462909698486,-0.03148574484870841,0.21168911457061768,0.9461669921875,-4.727975374771113,0.01261603832244873,4.924514313825921,2.4750725979863175,-5.3662757624833399,5.243977497023845,-0.7934634685516357,-5.899581947478382,-4.913207806011553,9.458741947066267,0.654926061630249,-0.9315739884167302,-0.18020427227020265,-2.223903973405359,-0.1794747395076217,-2.0186887875920496,3.948730687303179,-0.9438745975494385,-6.069004966844771,4.669028833961829,-6.724198155896076,-7.450472981949121,-0.46344316005706789,-6.041416369370618,-3.515988267093101,4.989565840855181,-0.1936183363994329,2.8203865738092754,-3.130794216102191,-0.4291876554489136,2.8764972971309175,-3.79556313918137,-0.10927090115609103,6.573179441356914,-26.38066254249492,-696276.5087000069,0.01660454273223877,-703824.8038598865,0.31010815501213076,-63.523821436130329,-8.614578018684697,-879863948939553.9,-47.29866963805746,-36.86810353003724,-8.90453786017158,-73.75073908550209,-145.8531217189605,-10.789586082904199,-10.035154682583041,-705174.3909349212,-715500.455478863,-4.185602070457575,-688745.683175062,-133.08649480600804,-704928.837476359,-699004.2215669396,-705384.679403834,-9.596347954586724,-8.121462294676068,-171.1839687036273,-12.278173488302679,-10.371599973395125,-19.284101567130948,-11.08584933133851,-5.264104912063098,-705727.9669581893,-703743.4036515773,-134.7257527777976,-4.462691853575292,-0.7659251689910889,-148.65890062460083,-5.81095610326993,-0.9463603634792819,-169.58437470388447,-7148334.858973676,-0.5816423892974854,-7142006.026845399,-7146246.445101108,-7143979.339717793,-7147115.143154043,-8.99473200307029,-7144162.845404697,-7147410.454518869,-7146013.885052885,-10.971280461203755,-7147200.477138041,-0.06626355648040772,-10.875249627176347,-10.220521407014834,-7141933.225085373,-0.4920111894607544,-7146994.20990123,-0.01731431484222412,-2.306735612380026,-7145553.651618446,-7147525.265670714,-7143633.197814205,-0.8844799995422363,0.33701130747795107,-7147155.554297029,-13.088676943795349,0.5533096790313721,-0.0014265775680541993,-11.315228022351496,-4.456144743395353,-7143474.454234241,-0.9276270866394043,-7146127.282874418,-3.704119482705693,-0.6300661563873291,-7146192.934744321,-6.262037541776347,-1.7736168761635814,-7148340.338845284,-0.7236781120300293,-0.6223931312561035,-0.750709056854248,5.943577659246148,0.3503398597240448,0.539670467376709,-11.608453802252268,0.6438736915588379,12.530255137727903,4.918404130625272,-13.67620982235554,10.933002466692937,-0.13647592067718507,-15.49024748053738,-15.294295901335027,0.8344259262084961,0.5426785945892334,8.688731489361582,0.7945637702941895,-2.878057929679086,2.3748538100941767,13.373912598688941,-0.49952781200408938,-0.03728902339935303,-0.32509076595306399,9.403016907799833,-19.289696922953753,-0.828627347946167,0.6262004375457764,-15.064308847669763,-6.109446902914064,0.1830521821975708,0.4710800349712372,5.118815183482109,-4.663198371494729,-0.21596777439117433,4.267737698873916,-8.306898334447873,-1.6872110501728126,16.01625274357152,-0.649791955947876,-0.2764993906021118,-0.6203551292419434,3.919421337794926,0.20854341983795167,0.5149319171905518,-10.270825354206837,-0.4253638982772827,10.226677324804989,3.0346330697714416,-12.04965289049545,9.498324169202063,-0.9063680171966553,-13.460339887850413,-12.324851083821218,-0.3812516927719116,-0.3659015893936157,9.300843350857779,-0.90761399269104,-2.292907386909576,1.7039221067034177,11.87604294249333,0.07225000858306885,-0.9089550971984863,-0.02459275722503662,9.12864231191653,-15.816607901976694,-0.9699761867523193,-0.6979513168334961,-14.510173045171304,-5.718674698302676,0.003159165382385254,-0.8974289894104004,4.003876861082506,-5.79962430486957,0.20893394947052003,3.678515494505039,-6.81547112228454,-1.365959210588758,15.1797722392302,0.24294650554656983,-73005.27669355677,0.045220017433166507,-73827.30124373779,-0.8840734958648682,-0.4882560968399048,0.017487168312072755,-0.16124045848846436,-0.07285034656524658,-0.324438214302063,0.42669937014579775,0.9169344902038574,0.6065261363983154,-0.955040693283081,0.4359454810619354,-73877.47210011508,-75021.78275917875,-34.5260206888415,-72215.68261726739,-0.6356046199798584,-73930.96170852041,-73341.96907172176,-73928.75919266543,0.9271175861358643,-39.729849743262487,0.9475522041320801,-0.020951151847839357,-53.21815750024797,0.7331538200378418,0.7383682727813721,-0.8081064224243164,-73970.79993166562,-73792.89694948112,-0.6651451587677002,-0.66326904296875,-0.08845794200897217,0.31719252467155459,-0.31732165813446047,-0.8493478298187256,-0.2890971899032593,-22.353404840922236,-0.8350379467010498,-0.49480903148651125,84.85199322469188,-1.3265971506046063e31,-54.53974492805167,-12.437722079067811,-269135210658673.67,-33.85364761902771,-29.39105251095508,-15.085079572519963,-55.90115986056411,-122.39599052537854,-17.498505161178924,-15.54924991154915,51.01774678070675,-0.1763995885848999,-3.2400881967920749,-0.8081662654876709,-112.08469327838746,90.31158736109374,30.841275077241478,7.885739543953346,-7.709712167671716,-10.764218372448094,-138.48598484619283,-19.722682675463273,-13.32605160109756,-15.303536173263519,-17.174892848703438,-7.554928830239728,76.90511897562284,64.17768677050444,-110.74047364923271,-6.26864947739194,-1.326565339428386e31,-121.01402667554571,-9.351516882236874,-1.7455760206739218,-133.1132706170623,-0.36571943759918215,0.5678501129150391,-0.9526803493499756,-8.795504279867437,-0.5164446830749512,-0.016820311546325685,-12.591556258260992,0.6434445381164551,12.397457086922728,4.701530531840546,-15.401967645875116,11.874440257799366,-0.6532948017120361,-15.960009459949207,-14.625353384380656,49.828308810684088,-0.4096616506576538,-16.520187304122549,-0.6151914596557617,-3.2529874360564148,-3.023580373245572,-21.909561866132955,24.782961464614155,0.6774976253509522,-30.064202253442379,11.335051680635381,-20.001404735151469,-39.57303928207848,-0.854123592376709,-15.817483073660844,-6.750658096029454,26.490572065485276,1.7232029922714303,4.305063269051941,-5.870381693834233,-0.567549467086792,4.74490147070898,-9.969157132368237,-3.1136494551404536,17.642982955173254,-0.5728528499603272,0.05424797534942627,-48.382928600438329,-48.33877452740273,-0.8660182952880859,0.803816556930542,-0.4559825658798218,0.5912961959838867,-0.45410287380218508,-0.9087264537811279,-49.696152748909359,-0.628699779510498,-0.808969259262085,-50.554124872171609,-49.118811768184837,-49.10779118780477,-0.25305426120758059,0.27741286158561709,-0.4818481206893921,0.7699227333068848,-48.4540489987092,-48.27068442970174,0.22642600536346436,0.7025666236877441,-48.03240449970233,-0.20373952388763429,-0.9333789348602295,-0.4634495973587036,-0.34286201000213625,-48.81484969474831,-47.325712140904318,-49.719665042848088,-49.123371381256337,0.4424695670604706,0.04265439510345459,0.5575721263885498,0.9685046672821045,-0.08400928974151612,0.5298452377319336,0.4521012008190155,-0.3503307104110718,0.2403627634048462,-75.87846757548577,-77.72811891683839,0.10229742527008057,0.5678679943084717,0.7413933690577558,0.6916015148162842,-0.6018611299774045,-0.1481687129724269,-79.1768039068108,0.3213566151768376,-0.22632300853729249,-79.72028407841738,-79.33124123048259,-77.39237288284787,0.49814102053642275,-0.47428872841045097,0.34458133578300478,0.4671180088704849,-76.30063006613648,-76.01215708200633,-0.21277248859405518,0.1761099100112915,-75.4625829292459,-0.04952981379167095,-0.6191682165593417,0.44241568446159365,-0.794464111328125,-77.48969641536344,-75.34788328751289,-77.10945258784999,-76.03930539810775,-0.6594246013906148,-0.24273174042758476,-0.09725677967071533,-0.16614562736930353,-0.4855873729143532,0.278219826716905,0.061673741347180958,-6.465531202156505,0.34267041087150576,-2105.0144525637807,-2106.481454407941,-0.5389585494995117,-12.609381542800783,-0.6628754138946533,-0.692920446395874,-11.248065164290387,-8.18365859276518,-2196.63000995978,-17.141335519344197,-30.24756569539765,-2172.6305758032086,-2185.2324601014952,-2129.24131832846,0.21464860439300538,-0.5673966938436486,0.7889285087585449,-27.57704954151861,-2113.3453684958326,-2079.7290662306254,-0.8146655559539795,-1.378290324755117,-2090.6769178403088,-37.43271837531447,0.38373324275016787,-0.2635258436203003,-3.3057426318870766,-2131.5330149570627,-2088.897458357108,-2125.7368708831714,-2109.504951006813,-28.54317598308215,0.8893163204193115,0.5059678554534912,-32.49733701310236,-0.15975582599639893,-0.8784084320068359,-37.08499653198493,-10.707519593031498,-0.049703001976013187,-620.2491009142967,-585.1620442136142,-0.2347639799118042,-25.746034006529297,0.6064846515655518,0.6344537734985352,-22.344268920194538,-16.617467946565779,-648.6105949716747,-32.57260401125612,-59.61194917629557,-640.1432341707157,-645.0851961008455,-612.3580881004075,-0.9725301265716553,-0.8452007968845016,0.7408068180084229,-54.02308035887063,-585.5676896902576,-601.6827262995996,-0.5807011127471924,-3.2727584169756298,-617.36331972212,-73.91670074937868,0.14276444911956788,-0.3914233446121216,-8.344541006557148,-629.1888152081634,-616.6633120271373,-597.7117710167346,-596.6556793264244,-57.556713010767328,-0.6218557357788086,0.06371629238128662,-62.293951572651277,-0.7768750190734863,0.4422864615917206,-75.65516634612442,-4.613801270412534,0.37227222323417666,0.9829509258270264,17.279561377842737,-0.3642972707748413,-11.010330559210395,-2.0651663440362144,-0.3475576639175415,-7.323678098998057,-5.480189986466141,-0.5353942900480162,-12.463318433827766,-25.00075247881112,-0.5689156771297362,-1.4006496839335146,7.518686976297479,-0.20498883724212647,0.8238568932921297,-0.12481176853179932,-21.816806231404546,19.075725462362468,6.086620526991834,0.13335645198822022,-2.28177174306597,-0.7618672847747803,-28.88960219793827,-1.1675169484154225,0.9457440376281738,-3.9779750891903418,-2.2550111505218619,-0.2776463066344782,14.46649560792556,11.89598166570866,-22.64292505586993,-0.8055730269271637,-0.926189661026001,-24.82802289119748,-0.8866605954977859,0.34814210727009128,-28.97509758221496,-4.831905062176879,-0.5129330158233643,-0.45330846309661868,20.91724659645472,0.5742642879486084,-13.628493896229227,0.3606357276439667,0.1159130334854126,-12.393782167375841,-8.796010216309144,-0.5736508369445801,-18.11315639014375,-31.919865641000937,0.5834546089172363,0.8893556594848633,8.783701998972166,0.1335364580154419,-0.650728233216122,-0.3382056951522827,-28.60511770183349,23.845958879742786,7.702379326916041,0.4947971999645233,-3.125992090907449,0.786982536315918,-37.669163804905959,-0.719266414642334,-0.5272464752197266,-3.6247029258110396,0.5273799896240234,-0.8795146942138672,17.36060954613209,16.811917891439408,-29.52034626042207,-0.2686580419540405,0.3465075194835663,-33.26763306321458,0.0271376371383667,-0.16057980060577393,-38.66417854149542,-0.667518138885498,-0.5225930213928223,0.7128856182098389,-1.3569945293932236,0.4986116588115692,0.3003673255443573,-8.607767315693432,-0.3368455171585083,8.781746881130872,2.022500954850599,-10.110227218478303,7.544639514705584,-0.3645831346511841,-11.99155573980605,-9.72679606537295,19.44706598855614,0.2574109733104706,-3.6270793211181746,-0.29243552684783938,-1.3769470545245595,0.06664350460755238,-4.909267241309867,8.751554351883506,-0.4030259847640991,-11.905199541079899,8.236407621082418,-12.645945245661804,-14.932012138881279,-0.589400053024292,-11.10065852331017,-5.5004902787422529,10.018956853091286,0.6536652607555077,2.9080211859575919,-3.3710311001068149,0.1893404722213745,2.806191235288886,-7.015059760656886,-0.8992703730934445,12.078003001827865,-2428234.2263454378,0.7525124549865723,-2426083.2120095097,-2427528.5426798199,-2426754.2463699129,-2427819.3024549519,0.10162580013275147,-2426815.7728497267,-2427923.648502176,-2427445.914338177,0.649223804473877,-2427850.687721592,0.589045524597168,-0.5673630237579346,0.4286639392375946,-2426048.0756697,-0.11365187168121338,-2427785.4233239318,0.9080448150634766,0.8515536785125732,-2427290.4262937267,-2427968.499168818,-2426630.091278641,-0.5795097351074219,-7.014354380605538,-2427835.254659305,0.8184361457824707,-8.017084659240238,0.4463021457195282,0.968163013458252,-0.6741006374359131,-2426576.3918221599,1.1438855544922522,-2427485.3408658269,-0.2908540964126587,-0.6691439151763916,-2427507.864112178,0.9549825191497803,-0.9083037376403809,-2428239.015473912]}